{"learner":{"attributes":{},"feature_names":[],"feature_types":[],"gradient_booster":{"model":{"cats":{"enc":[],"feature_segments":[],"sorted_idx":[]},"gbtree_model_param":{"num_parallel_tree":"1","num_trees":"500"},"iteration_indptr":[0,1,2,3,4,5,6,7,8,9,10,11,12,13,14,15,16,17,18,19,20,21,22,23,24,25,26,27,28,29,30,31,32,33,34,35,36,37,38,39,40,41,42,43,44,45,46,47,48,49,50,51,52,53,54,55,56,57,58,59,60,61,62,63,64,65,66,67,68,69,70,71,72,73,74,75,76,77,78,79,80,81,82,83,84,85,86,87,88,89,90,91,92,93,94,95,96,97,98,99,100,101,102,103,104,105,106,107,108,109,110,111,112,113,114,115,116,117,118,119,120,121,122,123,124,125,126,127,128,129,130,131,132,133,134,135,136,137,138,139,140,141,142,143,144,145,146,147,148,149,150,151,152,153,154,155,156,157,158,159,160,161,162,163,164,165,166,167,168,169,170,171,172,173,174,175,176,177,178,179,180,181,182,183,184,185,186,187,188,189,190,191,192,193,194,195,196,197,198,199,200,201,202,203,204,205,206,207,208,209,210,211,212,213,214,215,216,217,218,219,220,221,222,223,224,225,226,227,228,229,230,231,232,233,234,235,236,237,238,239,240,241,242,243,244,245,246,247,248,249,250,251,252,253,254,255,256,257,258,259,260,261,262,263,264,265,266,267,268,269,270,271,272,273,274,275,276,277,278,279,280,281,282,283,284,285,286,287,288,289,290,291,292,293,294,295,296,297,298,299,300,301,302,303,304,305,306,307,308,309,310,311,312,313,314,315,316,317,318,319,320,321,322,323,324,325,326,327,328,329,330,331,332,333,334,335,336,337,338,339,340,341,342,343,344,345,346,347,348,349,350,351,352,353,354,355,356,357,358,359,360,361,362,363,364,365,366,367,368,369,370,371,372,373,374,375,376,377,378,379,380,381,382,383,384,385,386,387,388,389,390,391,392,393,394,395,396,397,398,399,400,401,402,403,404,405,406,407,408,409,410,411,412,413,414,415,416,417,418,419,420,421,422,423,424,425,426,427,428,429,430,431,432,433,434,435,436,437,438,439,440,441,442,443,444,445,446,447,448,449,450,451,452,453,454,455,456,457,458,459,460,461,462,463,464,465,466,467,468,469,470,471,472,473,474,475,476,477,478,479,480,481,482,483,484,485,486,487,488,489,490,491,492,493,494,495,496,497,498,499,500],"tree_info":[0,0,0,0,0,0,0,0,0,0,0,0,0,0,0,0,0,0,0,0,0,0,0,0,0,0,0,0,0,0,0,0,0,0,0,0,0,0,0,0,0,0,0,0,0,0,0,0,0,0,0,0,0,0,0,0,0,0,0,0,0,0,0,0,0,0,0,0,0,0,0,0,0,0,0,0,0,0,0,0,0,0,0,0,0,0,0,0,0,0,0,0,0,0,0,0,0,0,0,0,0,0,0,0,0,0,0,0,0,0,0,0,0,0,0,0,0,0,0,0,0,0,0,0,0,0,0,0,0,0,0,0,0,0,0,0,0,0,0,0,0,0,0,0,0,0,0,0,0,0,0,0,0,0,0,0,0,0,0,0,0,0,0,0,0,0,0,0,0,0,0,0,0,0,0,0,0,0,0,0,0,0,0,0,0,0,0,0,0,0,0,0,0,0,0,0,0,0,0,0,0,0,0,0,0,0,0,0,0,0,0,0,0,0,0,0,0,0,0,0,0,0,0,0,0,0,0,0,0,0,0,0,0,0,0,0,0,0,0,0,0,0,0,0,0,0,0,0,0,0,0,0,0,0,0,0,0,0,0,0,0,0,0,0,0,0,0,0,0,0,0,0,0,0,0,0,0,0,0,0,0,0,0,0,0,0,0,0,0,0,0,0,0,0,0,0,0,0,0,0,0,0,0,0,0,0,0,0,0,0,0,0,0,0,0,0,0,0,0,0,0,0,0,0,0,0,0,0,0,0,0,0,0,0,0,0,0,0,0,0,0,0,0,0,0,0,0,0,0,0,0,0,0,0,0,0,0,0,0,0,0,0,0,0,0,0,0,0,0,0,0,0,0,0,0,0,0,0,0,0,0,0,0,0,0,0,0,0,0,0,0,0,0,0,0,0,0,0,0,0,0,0,0,0,0,0,0,0,0,0,0,0,0,0,0,0,0,0,0,0,0,0,0,0,0,0,0,0,0,0,0,0,0,0,0,0,0,0,0,0,0,0,0,0,0,0,0,0,0,0,0,0,0,0,0,0,0,0,0,0,0,0,0,0,0,0,0,0,0,0,0,0,0,0,0,0,0,0,0,0,0,0,0,0,0,0,0,0,0,0,0,0,0,0,0,0,0,0,0,0],"trees":[{"base_weights":[1.5542635E-2,8.7340885E-1,-7.0675075E-1,-6.629804E-1,1.4740577E0,-2.0449123E0,-2.2961827E-1,3.1882614E-2,-1.088486E0,4.9505636E-2,1.7700689E-1,-6.580251E-2,-1.9758422E-2,-7.878932E-1,1.1861033E0,2.1989115E-2,-1.4723164E0,-2.6004514E-2,4.0034413E-2,-1.2294817E0,4.5632128E-2,4.708326E-2,-1.2604196E-2,-5.4284807E-2,2.1499924E-3,-1.7016867E-2,-5.196397E-2],"categories":[],"categories_nodes":[],"categories_segments":[],"categories_sizes":[],"default_left":[0,0,0,0,0,0,0,0,0,0,0,0,0,0,0,0,0,0,0,0,0,0,0,0,0,0,0],"id":0,"left_children":[1,3,5,7,9,11,13,-1,15,-1,17,-1,-1,19,21,-1,23,-1,-1,25,-1,-1,-1,-1,-1,-1,-1],"loss_changes":[1.9697961E2,1.3568094E2,1.0922295E2,3.246199E1,2.3368576E1,6.8330994E0,1.0325883E2,0E0,2.570958E1,0E0,1.9062546E1,0E0,0E0,9.802269E1,2.3892193E1,0E0,1.5422565E1,0E0,0E0,2.4688232E1,0E0,0E0,0E0,0E0,0E0,0E0,0E0],"parents":[2147483647,0,0,1,1,2,2,3,3,4,4,5,5,6,6,8,8,10,10,13,13,14,14,16,16,19,19],"right_children":[2,4,6,8,10,12,14,-1,16,-1,18,-1,-1,20,22,-1,24,-1,-1,26,-1,-1,-1,-1,-1,-1,-1],"split_conditions":[5.84E1,-1.512E3,6E0,4.53E1,5.52E1,3.34632E1,1.4367608E0,3.1882614E-2,1.02E0,4.9505636E-2,1.47269E1,-6.580251E-2,-1.9758422E-2,2.9346E1,6.327E1,2.1989115E-2,3E-2,-2.6004514E-2,4.0034413E-2,1.66381E1,4.5632128E-2,4.708326E-2,-1.2604196E-2,-5.4284807E-2,2.1499924E-3,-1.7016867E-2,-5.196397E-2],"split_indices":[74,92,39,74,74,76,111,0,109,0,76,0,0,76,69,0,95,0,0,76,0,0,0,0,0,0,0],"split_type":[0,0,0,0,0,0,0,0,0,0,0,0,0,0,0,0,0,0,0,0,0,0,0,0,0,0,0],"sum_hessian":[3.1487698E2,1.4385059E2,1.710264E2,4.0340973E1,1.0350962E2,4.360207E1,1.2742433E2,7.488444E0,3.2852528E1,9.0706795E1,1.2802824E1,3.852925E1,5.072817E0,9.191461E1,3.550972E1,5.435161E0,2.7417368E1,6.884537E0,5.9182863E0,7.7783195E1,1.4131418E1,2.8745962E1,6.763756E0,2.2344551E1,5.072817E0,3.5026592E1,4.27566E1],"tree_param":{"num_deleted":"0","num_feature":"119","num_nodes":"27","size_leaf_vector":"1"}},{"base_weights":[3.3747394E-2,-4.9148828E-1,9.2902374E-1,-1.4148898E0,-2.2510675E-1,1.4799908E0,-5.7525474E-1,-1.9319326E0,-4.726972E-1,-6.16138E-1,1.2614354E0,-1.9851679E-3,4.8427027E-2,-9.1674453E-1,2.8981397E-2,-2.3414608E-2,-6.399512E-2,-5.2026656E-2,4.0160656E-2,-2.4219054E-1,-1.1637791E0,-4.7831144E-3,4.618514E-2,-1.3819859E0,3.2384829E-3,-3.5779044E-2,7.2418284E-3,-5.4583993E-2,-1.4389566E-2,-1.7796168E-2,-5.1540207E-2],"categories":[],"categories_nodes":[],"categories_segments":[],"categories_sizes":[],"default_left":[0,0,0,0,0,0,0,0,0,0,0,0,0,0,0,0,0,0,0,0,0,0,0,0,0,0,0,0,0,0,0],"id":1,"left_children":[1,3,5,7,9,11,13,15,17,19,21,-1,-1,23,-1,-1,-1,-1,-1,25,27,-1,-1,29,-1,-1,-1,-1,-1,-1,-1],"loss_changes":[1.4850583E2,4.8301754E1,9.8163315E1,1.9912651E1,9.195303E1,1.8154785E1,1.8345371E1,3.6928406E0,4.3988556E1,2.4995365E1,1.3540401E1,0E0,0E0,1.3364595E1,0E0,0E0,0E0,0E0,0E0,3.5534634E1,2.0951927E1,0E0,0E0,3.2626343E0,0E0,0E0,0E0,0E0,0E0,0E0,0E0],"parents":[2147483647,0,0,1,1,2,2,3,3,4,4,5,5,6,6,7,7,8,8,9,9,10,10,13,13,19,19,20,20,23,23],"right_children":[2,4,6,8,10,12,14,16,18,20,22,-1,-1,24,-1,-1,-1,-1,-1,26,28,-1,-1,30,-1,-1,-1,-1,-1,-1,-1],"split_conditions":[1.5E1,7.1E0,3.6E-1,6E0,1E2,6E-2,1.94445E1,7.075E1,1.1604143E0,3.3E1,7E0,-1.9851679E-3,4.8427027E-2,4.4924E1,2.8981397E-2,-2.3414608E-2,-6.399512E-2,-5.2026656E-2,4.0160656E-2,3E0,7E-1,-4.7831144E-3,4.618514E-2,2.965E2,3.2384829E-3,-3.5779044E-2,7.2418284E-3,-5.4583993E-2,-1.4389566E-2,-1.7796168E-2,-5.1540207E-2],"split_indices":[39,1,112,39,37,13,76,71,111,0,39,0,0,86,0,0,0,0,0,39,109,0,0,71,0,0,0,0,0,0,0],"split_type":[0,0,0,0,0,0,0,0,0,0,0,0,0,0,0,0,0,0,0,0,0,0,0,0,0,0,0,0,0,0,0],"sum_hessian":[3.1276498E2,1.9747583E2,1.1528916E2,4.2681015E1,1.5479482E2,8.4449005E1,3.084016E1,2.647217E1,1.6208845E1,1.2330523E2,3.1489582E1,6.747668E0,7.770134E1,2.579724E1,5.04292E0,5.1008224E0,2.1371347E1,9.624823E0,6.584023E0,7.4666466E1,4.863876E1,5.199846E0,2.6289738E1,1.7449306E1,8.347934E0,2.450717E1,5.0159298E1,2.3489882E1,2.514888E1,6.5408645E0,1.0908442E1],"tree_param":{"num_deleted":"0","num_feature":"119","num_nodes":"31","size_leaf_vector":"1"}},{"base_weights":[2.0930959E-2,8.37279E-1,-6.480441E-1,-6.016214E-1,1.4503561E0,-9.443977E-1,9.1796786E-1,3.36113E-2,-9.8318493E-1,4.7748204E-2,2.5624385E-1,-1.2067227E0,4.245915E-1,-3.5792653E-2,4.5534015E-2,2.4814473E-2,-1.3940074E0,-2.0919954E-2,3.7623085E-2,-4.939135E-1,-1.5984491E0,-3.4440607E-2,4.4208325E-2,-5.1290724E-2,3.3133136E-4,1.0689383E-2,-3.1490956E-2,-2.7700208E-2,-5.6465633E-2],"categories":[],"categories_nodes":[],"categories_segments":[],"categories_sizes":[],"default_left":[0,0,0,0,0,0,0,0,0,0,0,0,0,0,0,0,0,0,0,0,0,0,0,0,0,0,0,0,0],"id":2,"left_children":[1,3,5,7,9,11,13,-1,15,-1,17,19,21,-1,-1,-1,23,-1,-1,25,27,-1,-1,-1,-1,-1,-1,-1,-1],"loss_changes":[1.7038672E2,1.2538559E2,8.085636E1,2.9895578E1,1.5910095E1,5.2895004E1,3.818445E1,0E0,2.8598629E1,0E0,1.3109301E1,3.269397E1,4.2747482E1,0E0,0E0,0E0,1.349897E1,0E0,0E0,2.2157856E1,1.2057999E1,0E0,0E0,0E0,0E0,0E0,0E0,0E0,0E0],"parents":[2147483647,0,0,1,1,2,2,3,3,4,4,5,5,6,6,8,8,10,10,11,11,12,12,16,16,19,19,20,20],"right_children":[2,4,6,8,10,12,14,-1,16,-1,18,20,22,-1,-1,-1,24,-1,-1,26,28,-1,-1,-1,-1,-1,-1,-1,-1],"split_conditions":[5.84E1,-1.512E3,7.65E1,4.53E1,5.52E1,2.9346E1,7.5E-1,3.36113E-2,1E0,4.7748204E-2,1.47269E1,1.66381E1,1E0,-3.5792653E-2,4.5534015E-2,2.4814473E-2,3E-2,-2.0919954E-2,3.7623085E-2,2.27E1,1.1125E2,-3.4440607E-2,4.4208325E-2,-5.1290724E-2,3.3133136E-4,1.0689383E-2,-3.1490956E-2,-2.7700208E-2,-5.6465633E-2],"split_indices":[74,92,74,74,74,76,109,0,113,0,76,76,53,0,0,0,95,0,0,1,71,0,0,0,0,0,0,0,0],"split_type":[0,0,0,0,0,0,0,0,0,0,0,0,0,0,0,0,0,0,0,0,0,0,0,0,0,0,0,0,0],"sum_hessian":[3.0897205E2,1.3905536E2,1.6991669E2,4.1505733E1,9.754962E1,1.4343263E2,2.648406E1,6.9543276E0,3.4551407E1,8.670972E1,1.0839901E1,1.2057831E2,2.2854319E1,5.494922E0,2.0989138E1,6.06441E0,2.8486996E1,5.722704E0,5.117197E0,4.4056664E1,7.6521645E1,9.050137E0,1.3804181E1,2.3053371E1,5.4336233E0,1.7556932E1,2.6499733E1,2.4636633E1,5.188501E1],"tree_param":{"num_deleted":"0","num_feature":"119","num_nodes":"29","size_leaf_vector":"1"}},{"base_weights":[-2.4103909E-3,8.167935E-1,-4.9856222E-1,2.1598044E-1,1.4880892E0,-1.0763148E-1,-1.146144E0,1.171208E0,-5.46899E-1,2.2021258E-2,4.6495426E-2,4.7105113E-1,-7.9875046E-1,-1.3568765E0,3.833955E-2,4.2633407E-2,3.801712E-3,-9.860153E-1,3.5769805E-2,-1.0174637E0,7.7530485E-1,-1.0941027E0,4.2307726E-1,-1.5817282E0,7.2103376E-3,-4.1852765E-2,-7.2104908E-3,-5.9610447E-3,-4.5687687E-2,8.269437E-3,4.162092E-2,-4.0597115E-2,2.2017041E-2,-1.2141456E-2,3.7137784E-2,-1.4810435E-2,-5.290981E-2],"categories":[],"categories_nodes":[],"categories_segments":[],"categories_sizes":[],"default_left":[0,0,0,0,0,0,0,0,0,0,0,0,0,0,0,0,0,0,0,0,0,0,0,0,0,0,0,0,0,0,0,0,0,0,0,0,0],"id":3,"left_children":[1,3,5,7,9,11,13,15,17,-1,-1,19,21,23,-1,-1,-1,25,-1,27,29,31,33,35,-1,-1,-1,-1,-1,-1,-1,-1,-1,-1,-1,-1,-1],"loss_changes":[1.3099934E2,4.8362267E1,5.0536633E1,4.909246E1,7.225189E-1,5.1387337E1,4.110344E1,7.3600883E0,3.048825E1,0E0,0E0,3.285418E1,2.1876E1,2.587764E1,0E0,0E0,0E0,8.76461E0,0E0,4.534708E0,1.7307884E1,2.4101658E1,9.203064E0,1.0681091E1,0E0,0E0,0E0,0E0,0E0,0E0,0E0,0E0,0E0,0E0,0E0,0E0,0E0],"parents":[2147483647,0,0,1,1,2,2,3,3,4,4,5,5,6,6,7,7,8,8,11,11,12,12,13,13,17,17,19,19,20,20,21,21,22,22,23,23],"right_children":[2,4,6,8,10,12,14,16,18,-1,-1,20,22,24,-1,-1,-1,26,-1,28,30,32,34,36,-1,-1,-1,-1,-1,-1,-1,-1,-1,-1,-1,-1,-1],"split_conditions":[3.5E-1,2.4E1,6.26E1,2E0,6.4880955E-1,8.1E1,3.22E0,5.11E0,3E0,2.2021258E-2,4.6495426E-2,6.7E0,1E2,7.763333E1,3.833955E-2,4.2633407E-2,3.801712E-3,3.4E-1,3.5769805E-2,1.986E1,2.27E0,9.05E0,1.03E1,3.6E-1,7.2103376E-3,-4.1852765E-2,-7.2104908E-3,-5.9610447E-3,-4.5687687E-2,8.269437E-3,4.162092E-2,-4.0597115E-2,2.2017041E-2,-1.2141456E-2,3.7137784E-2,-1.4810435E-2,-5.290981E-2],"split_indices":[112,72,69,22,23,100,109,108,22,0,0,1,37,61,0,0,0,112,0,69,109,108,1,112,0,0,0,0,0,0,0,0,0,0,0,0,0],"split_type":[0,0,0,0,0,0,0,0,0,0,0,0,0,0,0,0,0,0,0,0,0,0,0,0,0,0,0,0,0,0,0,0,0,0,0,0,0],"sum_hessian":[3.1937708E2,1.20027275E2,1.993498E2,6.44636E1,5.556367E1,1.2549499E2,7.385481E1,2.8325047E1,3.6138554E1,5.792091E0,4.977158E1,6.8484764E1,5.701022E1,6.859354E1,5.261273E0,2.2342669E1,5.9823785E0,2.941821E1,6.7203455E0,1.0970144E1,5.751462E1,4.6104122E1,1.0906096E1,6.019643E1,8.397108E0,1.8066372E1,1.1351837E1,5.060485E0,5.9096594E0,3.295258E1,2.4562044E1,4.0769062E1,5.3350625E0,5.723721E0,5.1823754E0,9.500226E0,5.0696205E1],"tree_param":{"num_deleted":"0","num_feature":"119","num_nodes":"37","size_leaf_vector":"1"}},{"base_weights":[6.306471E-3,7.954021E-1,-6.4763796E-1,-5.3420836E-1,1.3612609E0,-1.8153932E0,-1.8574311E-1,2.9825466E-2,-8.7939435E-1,-1.6106142E-2,1.476659E0,-5.8219977E-2,-1.7106194E-2,-7.327706E-1,1.0478204E0,2.284978E-2,-1.2201424E0,4.5946725E-2,1.46723585E-2,-1.1688025E0,4.349486E-2,-1.2317153E-2,1.3920316E0,-4.7766235E-2,6.0508973E-3,-1.6530064E-3,-4.4081844E-2,1.5270493E-2,4.573087E-2],"categories":[],"categories_nodes":[],"categories_segments":[],"categories_sizes":[],"default_left":[0,0,0,0,0,0,0,0,0,0,0,0,0,0,0,0,0,0,0,0,0,0,0,0,0,0,0,0,0],"id":4,"left_children":[1,3,5,7,9,11,13,-1,15,-1,17,-1,-1,19,21,-1,23,-1,-1,25,-1,-1,27,-1,-1,-1,-1,-1,-1],"loss_changes":[1.6326729E2,1.0908755E2,9.25726E1,2.4430862E1,2.3425613E1,5.698654E0,8.5910065E1,0E0,2.1914526E1,0E0,3.8652954E0,0E0,0E0,8.6251564E1,2.0615505E1,0E0,1.6992023E1,0E0,0E0,2.4568314E1,0E0,0E0,2.3816261E0,0E0,0E0,0E0,0E0,0E0,0E0],"parents":[2147483647,0,0,1,1,2,2,3,3,4,4,5,5,6,6,8,8,10,10,13,13,14,14,16,16,19,19,22,22],"right_children":[2,4,6,8,10,12,14,-1,16,-1,18,-1,-1,20,22,-1,24,-1,-1,26,-1,-1,28,-1,-1,-1,-1,-1,-1],"split_conditions":[5.84E1,-1.512E3,6E0,4.53E1,3E0,7.64E0,1.197359E0,2.9825466E-2,1.03E0,-1.6106142E-2,5.62E1,-5.8219977E-2,-1.7106194E-2,6.72E0,3.32E0,2.284978E-2,6E0,4.5946725E-2,1.46723585E-2,5.513625E0,4.349486E-2,-1.2317153E-2,1.8905809E0,-4.7766235E-2,6.0508973E-3,-1.6530064E-3,-4.4081844E-2,1.5270493E-2,4.573087E-2],"split_indices":[74,92,39,74,39,108,111,0,109,0,74,0,0,108,108,0,39,0,0,63,0,0,111,0,0,0,0,0,0],"split_type":[0,0,0,0,0,0,0,0,0,0,0,0,0,0,0,0,0,0,0,0,0,0,0,0,0,0,0,0,0],"sum_hessian":[3.133683E2,1.419318E2,1.714365E2,4.234352E1,9.958828E1,4.7283398E1,1.241531E2,7.2283654E0,3.5115154E1,5.343893E0,9.4244385E1,4.212707E1,5.156327E0,8.648922E1,3.7663883E1,5.6686063E0,2.9446548E1,8.8402695E1,5.841693E0,7.270669E1,1.3782528E1,7.0813055E0,3.0582577E1,2.3252462E1,6.1940856E0,1.590094E1,5.6805748E1,5.03182E0,2.5550758E1],"tree_param":{"num_deleted":"0","num_feature":"119","num_nodes":"29","size_leaf_vector":"1"}},{"base_weights":[1.3853024E-2,-8.457678E-1,4.230944E-1,-3.8796124E-1,-5.451829E-2,-3.1304115E-1,1.3862412E0,-1.2821207E0,4.6190128E-2,9.071415E-1,-9.5944244E-1,4.4767386E-1,4.595189E-2,3.158069E-3,-5.222039E-2,6.788211E-1,-1.1546174E0,-1.7100908E-2,1.1342156E0,-1.2940917E0,6.5801257E-1,-1.6761065E-2,3.2517895E-2,-1.23989135E-2,4.05992E-2,-4.735179E-3,-4.6219938E-2,8.153732E-3,4.252203E-2,-4.3988097E-2,1.9622274E-2,4.159976E-2,-1.0668537E-2],"categories":[],"categories_nodes":[],"categories_segments":[],"categories_sizes":[],"default_left":[0,0,0,0,0,0,0,0,0,0,0,0,0,0,0,0,0,0,0,0,0,0,0,0,0,0,0,0,0,0,0,0,0],"id":5,"left_children":[1,3,5,7,-1,9,11,13,15,17,19,21,-1,-1,-1,23,25,-1,27,29,31,-1,-1,-1,-1,-1,-1,-1,-1,-1,-1,-1,-1],"loss_changes":[1.1184367E2,4.4313347E1,1.5355792E2,2.8027576E1,0E0,9.8573814E1,1.1567734E1,1.5418594E1,3.881153E1,1.5591202E1,4.5398003E1,1.0428837E1,0E0,0E0,0E0,2.5600832E1,6.244524E0,0E0,8.581913E0,2.4328415E1,1.184507E1,0E0,0E0,0E0,0E0,0E0,0E0,0E0,0E0,0E0,0E0,0E0,0E0],"parents":[2147483647,0,0,1,1,2,2,3,3,5,5,6,6,7,7,8,8,9,9,10,10,11,11,15,15,16,16,18,18,19,19,20,20],"right_children":[2,4,6,8,-1,10,12,14,16,18,20,22,-1,-1,-1,24,26,-1,28,30,32,-1,-1,-1,-1,-1,-1,-1,-1,-1,-1,-1,-1],"split_conditions":[6E0,6E0,1E2,2E0,-5.451829E-2,2.6E1,3.86E0,6.5E-1,5E0,1.09E-1,9.113333E-1,3.1733334E-1,4.595189E-2,3.158069E-3,-5.222039E-2,7.005941E-1,5.339834E1,-1.7100908E-2,-1.11E2,2.9346E1,1.0308522E2,-1.6761065E-2,3.2517895E-2,-1.23989135E-2,4.05992E-2,-4.735179E-3,-4.6219938E-2,8.153732E-3,4.252203E-2,-4.3988097E-2,1.9622274E-2,4.159976E-2,-1.0668537E-2],"split_indices":[39,113,37,39,0,0,108,109,39,102,5,5,0,0,0,5,10,0,90,76,62,0,0,0,0,0,0,0,0,0,0,0,0],"split_type":[0,0,0,0,0,0,0,0,0,0,0,0,0,0,0,0,0,0,0,0,0,0,0,0,0,0,0,0,0,0,0,0,0],"sum_hessian":[3.150196E2,1.0100723E2,2.1401236E2,7.01515E1,3.0855734E1,1.21816414E2,9.2195946E1,2.2046356E1,4.810514E1,4.192213E1,7.989428E1,1.3286402E1,7.8909546E1,5.7095246E0,1.6336832E1,3.1987984E1,1.6117159E1,5.2251835E0,3.6696945E1,6.64977E1,1.3396581E1,5.156288E0,8.130114E0,1.2378111E1,1.960987E1,5.1617603E0,1.0955399E1,9.885132E0,2.6811815E1,6.1485966E1,5.011736E0,7.53017E0,5.8664103E0],"tree_param":{"num_deleted":"0","num_feature":"119","num_nodes":"33","size_leaf_vector":"1"}},{"base_weights":[4.435812E-2,7.597191E-1,-5.631302E-1,-5.299272E-1,1.3210664E0,-1.7354954E0,-1.19674556E-1,3.1006783E-2,-8.372907E-1,4.4838954E-2,1.3308726E-1,-2.7556697E-2,-5.434071E-2,-8.325509E-1,1.2803789E0,1.7724497E-2,-1.1921985E0,-1.7376957E-2,3.234467E-2,-1.0988073E0,3.997006E-2,4.348783E-2,1.1610597E-2,-4.5811165E-2,6.7736E-3,-4.565093E-2,1.0510519E-2],"categories":[],"categories_nodes":[],"categories_segments":[],"categories_sizes":[],"default_left":[0,0,0,0,0,0,0,0,0,0,0,0,0,0,0,0,0,0,0,0,0,0,0,0,0,0,0],"id":6,"left_children":[1,3,5,7,9,11,13,-1,15,-1,17,-1,-1,19,21,-1,23,-1,-1,25,-1,-1,-1,-1,-1,-1,-1],"loss_changes":[1.3592711E2,1.0512573E2,8.742049E1,2.2702774E1,2.0275925E1,9.681702E-2,1.2568301E2,0E0,2.0447714E1,0E0,1.0775245E1,0E0,0E0,5.022548E1,5.4002E0,0E0,1.541412E1,0E0,0E0,4.693959E1,0E0,0E0,0E0,0E0,0E0,0E0,0E0],"parents":[2147483647,0,0,1,1,2,2,3,3,4,4,5,5,6,6,8,8,10,10,13,13,14,14,16,16,19,19],"right_children":[2,4,6,8,10,12,14,-1,16,-1,18,-1,-1,20,22,-1,24,-1,-1,26,-1,-1,-1,-1,-1,-1,-1],"split_conditions":[5.87E1,-1.512E3,6E0,4.53E1,5.52E1,-1.5E3,1E2,3.1006783E-2,1E0,4.4838954E-2,1.47269E1,-2.7556697E-2,-5.434071E-2,2.9346E1,5.579E1,1.7724497E-2,3E-2,-1.7376957E-2,3.234467E-2,1E0,3.997006E-2,4.348783E-2,1.1610597E-2,-4.5811165E-2,6.7736E-3,-4.565093E-2,1.0510519E-2],"split_indices":[74,92,39,74,74,92,37,0,113,0,76,0,0,76,69,0,95,0,0,11,0,0,0,0,0,0,0],"split_type":[0,0,0,0,0,0,0,0,0,0,0,0,0,0,0,0,0,0,0,0,0,0,0,0,0,0,0],"sum_hessian":[3.0976093E2,1.4215361E2,1.6760732E2,4.3082096E1,9.907152E1,4.4737846E1,1.2286947E2,6.442296E0,3.66398E1,8.603091E1,1.304061E1,5.5841236E0,3.9153725E1,8.186504E1,4.100443E1,7.0385766E0,2.9601223E1,7.706721E0,5.333889E0,7.359816E1,8.266886E0,3.359513E1,7.409298E0,2.3910261E1,5.690963E0,5.6967842E1,1.6630314E1],"tree_param":{"num_deleted":"0","num_feature":"119","num_nodes":"27","size_leaf_vector":"1"}},{"base_weights":[-1.291713E-2,-4.754317E-1,8.0042857E-1,-6.35803E-1,1.1320707E0,1.3597655E0,-5.6288105E-1,-8.974314E-1,-4.8001003E-2,1.4755729E-2,3.917136E-2,-1.3473299E-3,4.3676548E-2,-1.4661248E0,2.7403957E-1,-1.0472022E0,2.29865E-2,-5.652993E-1,1.1633111E0,-5.6060635E-2,-1.36355115E-2,3.8370535E-2,-3.81436E-2,-2.0748751E-2,-4.652395E-2,2.3891889E-2,-2.9193211E-2,4.164162E-2,1.3277364E-2],"categories":[],"categories_nodes":[],"categories_segments":[],"categories_sizes":[],"default_left":[0,0,0,0,0,0,0,0,0,0,0,0,0,0,0,0,0,0,0,0,0,0,0,0,0,0,0,0,0],"id":7,"left_children":[1,3,5,7,9,11,13,15,17,-1,-1,-1,-1,19,21,23,-1,25,27,-1,-1,-1,-1,-1,-1,-1,-1,-1,-1],"loss_changes":[1.1859084E2,5.2866154E1,8.834336E1,2.811435E1,9.383068E-1,1.1242783E1,2.6608637E1,3.2880966E1,3.7476242E1,0E0,0E0,0E0,0E0,5.3202553E0,3.1921192E1,1.9157043E1,0E0,2.4470436E1,1.7929497E0,0E0,0E0,0E0,0E0,0E0,0E0,0E0,0E0,0E0,0E0],"parents":[2147483647,0,0,1,1,2,2,3,3,4,4,5,5,6,6,7,7,8,8,13,13,14,14,15,15,17,17,18,18],"right_children":[2,4,6,8,10,12,14,16,18,-1,-1,-1,-1,20,22,24,-1,26,28,-1,-1,-1,-1,-1,-1,-1,-1,-1,-1],"split_conditions":[1.5E1,3.2E0,3.6E-1,2.95849E1,3.766835E0,4.8E-2,1.66E-1,4.815E1,6E0,1.4755729E-2,3.917136E-2,-1.3473299E-3,4.3676548E-2,1E2,1.6E0,2.59449E1,2.29865E-2,3.28062E1,4.9725E1,-5.6060635E-2,-1.36355115E-2,3.8370535E-2,-3.81436E-2,-2.0748751E-2,-4.652395E-2,2.3891889E-2,-2.9193211E-2,4.164162E-2,1.3277364E-2],"split_indices":[39,109,112,76,107,102,6,61,39,0,0,0,0,27,73,76,0,76,68,0,0,0,0,0,0,0,0,0,0],"split_type":[0,0,0,0,0,0,0,0,0,0,0,0,0,0,0,0,0,0,0,0,0,0,0,0,0,0,0,0,0],"sum_hessian":[3.1231573E2,1.995732E2,1.1274252E2,1.823501E2,1.72231E1,7.999821E1,3.2744316E1,1.2552095E2,5.6829155E1,5.024105E0,1.2198995E1,5.1080837E0,7.489012E1,1.5263265E1,1.748105E1,1.15719185E2,9.8017645E0,4.0441074E1,1.6388079E1,9.938556E0,5.3247085E0,1.0788813E1,6.6922393E0,7.003077E1,4.568841E1,8.934315E0,3.150676E1,1.1328098E1,5.059982E0],"tree_param":{"num_deleted":"0","num_feature":"119","num_nodes":"29","size_leaf_vector":"1"}},{"base_weights":[8.819665E-3,7.902348E-1,-6.0995924E-1,-4.4563138E-1,1.3321688E0,-8.4772897E-1,8.2462496E-1,2.521261E-2,-8.3954185E-1,4.398315E-2,1.8825328E-1,-1.101538E0,4.258801E-1,-3.0754376E-2,4.190752E-2,2.4434026E-2,-1.2465343E0,-2.7442958E-2,3.6205795E-2,-4.067721E-1,-1.4546038E0,-6.0407966E-1,3.764861E-2,-2.1612402E-2,-4.7735255E-2,1.7327402E-2,-2.9205332E-2,-9.27749E-3,-4.7283098E-2,2.6990736E-3,-3.508924E-2],"categories":[],"categories_nodes":[],"categories_segments":[],"categories_sizes":[],"default_left":[0,0,0,0,0,0,0,0,0,0,0,0,0,0,0,0,0,0,0,0,0,0,0,0,0,0,0,0,0,0,0],"id":8,"left_children":[1,3,5,7,9,11,13,-1,15,-1,17,19,21,-1,-1,-1,23,-1,-1,25,27,29,-1,-1,-1,-1,-1,-1,-1,-1,-1],"loss_changes":[1.5078711E2,9.331319E1,6.0387543E1,2.288858E1,1.41701355E1,4.9266792E1,2.910898E1,0E0,2.4318176E1,0E0,1.5043612E1,2.9730316E1,2.335738E1,0E0,0E0,0E0,3.0838928E0,0E0,0E0,2.5703278E1,1.0573135E1,5.1840644E0,0E0,0E0,0E0,0E0,0E0,0E0,0E0,0E0,0E0],"parents":[2147483647,0,0,1,1,2,2,3,3,4,4,5,5,6,6,8,8,10,10,11,11,12,12,16,16,19,19,20,20,21,21],"right_children":[2,4,6,8,10,12,14,-1,16,-1,18,20,22,-1,-1,-1,24,-1,-1,26,28,30,-1,-1,-1,-1,-1,-1,-1,-1,-1],"split_conditions":[5.84E1,-1.512E3,7.65E1,4.54E1,5.52E1,6.67E0,7.5E-1,2.521261E-2,1E0,4.398315E-2,3.49E0,3.79E0,2.1E1,-3.0754376E-2,4.190752E-2,2.4434026E-2,7.6876526E0,-2.7442958E-2,3.6205795E-2,3.6E-1,6.13E1,1.96E2,3.764861E-2,-2.1612402E-2,-4.7735255E-2,1.7327402E-2,-2.9205332E-2,-9.27749E-3,-4.7283098E-2,2.6990736E-3,-3.508924E-2],"split_indices":[74,92,74,74,74,108,109,0,113,0,108,108,72,0,0,0,62,0,0,112,74,71,0,0,0,0,0,0,0,0,0],"split_type":[0,0,0,0,0,0,0,0,0,0,0,0,0,0,0,0,0,0,0,0,0,0,0,0,0,0,0,0,0,0,0],"sum_hessian":[3.088182E2,1.3636183E2,1.7245639E2,4.159273E1,9.47691E1,1.4852328E2,2.3933107E1,9.294285E0,3.2298447E1,8.437954E1,1.0389555E1,1.2407782E2,2.444546E1,5.3332443E0,1.8599863E1,6.0329943E0,2.6265453E1,5.014378E0,5.375177E0,4.2991062E1,8.108676E1,1.1029698E1,1.3415761E1,1.23452015E1,1.3920251E1,1.5633156E1,2.7357906E1,8.365708E0,7.2721054E1,5.439272E0,5.590427E0],"tree_param":{"num_deleted":"0","num_feature":"119","num_nodes":"31","size_leaf_vector":"1"}},{"base_weights":[-2.448967E-2,7.295549E-1,-4.472204E-1,-5.649959E-1,1.0239682E0,-9.653893E-2,-1.0188417E0,7.3904376E-3,-1.0086482E0,-6.201328E-3,1.1669748E0,-6.4056695E-1,6.4254045E-1,-1.281438E0,3.8204737E-2,-4.0593263E-2,-1.0868618E-2,-4.7436308E-5,1.2776638E0,-1.0767788E0,-0E0,-5.222148E-1,9.6250373E-1,-1.4028567E0,-6.30378E-4,8.9370453E-4,4.0993594E-2,-1.650095E-2,-4.737855E-2,-3.1447683E-2,1.705836E-2,-4.5663226E-2,1.7368637E-2,3.6223177E-2,4.2386996E-3,-1.7721387E-2,-4.7670458E-2],"categories":[],"categories_nodes":[],"categories_segments":[],"categories_sizes":[],"default_left":[0,0,0,0,0,0,0,0,0,0,0,0,0,0,0,0,0,0,0,0,0,0,0,0,0,0,0,0,0,0,0,0,0,0,0,0,0],"id":9,"left_children":[1,3,5,7,9,11,13,-1,15,-1,17,19,21,23,-1,-1,-1,-1,25,27,29,31,33,35,-1,-1,-1,-1,-1,-1,-1,-1,-1,-1,-1,-1,-1],"loss_changes":[9.883333E1,4.335164E1,3.9584595E1,8.200475E0,1.6528366E1,5.0858974E1,4.778176E1,0E0,2.2761173E0,0E0,1.0750557E1,2.037033E1,2.0792494E1,1.02745285E1,0E0,0E0,0E0,0E0,8.11808E0,9.954315E0,1.934162E1,1.5143008E1,8.194828E0,7.7861404E0,0E0,0E0,0E0,0E0,0E0,0E0,0E0,0E0,0E0,0E0,0E0,0E0,0E0],"parents":[2147483647,0,0,1,1,2,2,3,3,4,4,5,5,6,6,8,8,10,10,11,11,12,12,13,13,18,18,19,19,20,20,21,21,22,22,23,23],"right_children":[2,4,6,8,10,12,14,-1,16,-1,18,20,22,24,-1,-1,-1,-1,26,28,30,32,34,36,-1,-1,-1,-1,-1,-1,-1,-1,-1,-1,-1,-1,-1],"split_conditions":[3.5E-1,1.25E1,2.965E2,2.959E1,9.778E1,1.2625E2,3.22E0,7.3904376E-3,7.1E0,-6.201328E-3,1.035E1,6.885333E-1,1.03E1,7.763333E1,3.8204737E-2,-4.0593263E-2,-1.0868618E-2,-4.7436308E-5,1.17E-1,2.55E1,6.831381E0,3.06E0,3.26748E1,3.6E-1,-6.30378E-4,8.9370453E-4,4.0993594E-2,-1.650095E-2,-4.737855E-2,-3.1447683E-2,1.705836E-2,-4.5663226E-2,1.7368637E-2,3.6223177E-2,4.2386996E-3,-1.7721387E-2,-4.7670458E-2],"split_indices":[112,1,71,69,26,71,109,0,1,0,61,7,1,61,0,0,0,0,88,38,107,109,76,112,0,0,0,0,0,0,0,0,0,0,0,0,0],"split_type":[0,0,0,0,0,0,0,0,0,0,0,0,0,0,0,0,0,0,0,0,0,0,0,0,0,0,0,0,0,0,0,0,0,0,0,0,0],"sum_hessian":[3.0711096E2,1.098468E2,1.9726414E2,2.0034742E1,8.9812065E1,1.2345472E2,7.3809425E1,7.2386003E0,1.2796143E1,9.20746E0,8.06046E1,7.130394E1,5.2150784E1,6.685591E1,6.953512E0,7.176675E0,5.6194673E0,7.024229E0,7.3580376E1,4.183397E1,2.9469967E1,1.0967034E1,4.118375E1,6.0754498E1,6.1014156E0,5.095539E0,6.848483E1,2.2055445E1,1.9778526E1,9.903224E0,1.9566744E1,5.4949136E0,5.472121E0,3.1085068E1,1.0098682E1,1.2596662E1,4.8157837E1],"tree_param":{"num_deleted":"0","num_feature":"119","num_nodes":"37","size_leaf_vector":"1"}},{"base_weights":[7.7248174E-3,7.6603144E-1,-5.728144E-1,-3.7166414E-1,1.2661875E0,-1.5981535E0,-1.6451082E-1,2.8601661E-2,-7.712515E-1,4.287183E-2,1.0834609E-1,-5.1375266E-2,-1.4307286E-2,-8.198728E-1,1.1900843E0,2.7166545E-2,-1.1639804E0,-2.6568824E-2,3.5594806E-2,-1.0333598E0,3.731157E-2,3.900023E-3,4.0855836E-2,-4.4627152E-2,-3.8098663E-4,-3.7983447E-2,1.6501583E-2],"categories":[],"categories_nodes":[],"categories_segments":[],"categories_sizes":[],"default_left":[0,0,0,0,0,0,0,0,0,0,0,0,0,0,0,0,0,0,0,0,0,0,0,0,0,0,0],"id":10,"left_children":[1,3,5,7,9,11,13,-1,15,-1,17,-1,-1,19,21,-1,23,-1,-1,25,-1,-1,-1,-1,-1,-1,-1],"loss_changes":[1.3507014E2,7.652676E1,7.2144966E1,2.318531E1,1.7123642E1,4.8677216E0,1.1325229E2,0E0,2.3309893E1,0E0,1.5697531E1,0E0,0E0,3.971975E1,7.166733E0,0E0,1.0032089E1,0E0,0E0,3.0101532E1,0E0,0E0,0E0,0E0,0E0,0E0,0E0],"parents":[2147483647,0,0,1,1,2,2,3,3,4,4,5,5,6,6,8,8,10,10,13,13,14,14,16,16,19,19],"right_children":[2,4,6,8,10,12,14,-1,16,-1,18,-1,-1,20,22,-1,24,-1,-1,26,-1,-1,-1,-1,-1,-1,-1],"split_conditions":[5.84E1,-1.512E3,6E0,4.54E1,5.52E1,7.64E0,1E2,2.8601661E-2,1.04E0,4.287183E-2,3.38E0,-5.1375266E-2,-1.4307286E-2,2.9346E1,1.1E1,2.7166545E-2,6E0,-2.6568824E-2,3.5594806E-2,6.468486E1,3.731157E-2,3.900023E-3,4.0855836E-2,-4.4627152E-2,-3.8098663E-4,-3.7983447E-2,1.6501583E-2],"split_indices":[74,92,39,74,74,108,37,0,109,0,108,0,0,76,72,0,39,0,0,63,0,0,0,0,0,0,0],"split_type":[0,0,0,0,0,0,0,0,0,0,0,0,0,0,0,0,0,0,0,0,0,0,0,0,0,0,0],"sum_hessian":[3.0378052E2,1.3158966E2,1.7219086E2,4.024058E1,9.1349075E1,4.772554E1,1.24465324E2,8.783818E0,3.1456764E1,7.969995E1,1.1649122E1,4.2509792E1,5.2157497E0,8.433126E1,4.0134068E1,5.549441E0,2.5907324E1,6.1522713E0,5.4968505E0,7.714737E1,7.18389E0,6.04514E0,3.4088924E1,1.9813354E1,6.09397E0,6.757749E1,9.569874E0],"tree_param":{"num_deleted":"0","num_feature":"119","num_nodes":"27","size_leaf_vector":"1"}},{"base_weights":[2.6495568E-2,7.225483E-1,-5.175451E-1,1.12126E0,-5.993855E-1,-1.5252768E0,-1.3302454E-1,-8.535575E-3,1.2151955E0,-1.0164869E0,1.5792878E-2,-4.91371E-2,-1.413792E-2,-7.638101E-1,1.1763077E0,1.363027E0,6.842471E-1,-1.2446933E0,-3.3341718E-3,-9.934865E-1,3.7446216E-2,3.0173194E-3,4.04085E-2,1.9257793E-2,4.219678E-2,3.7174273E-2,-5.017251E-3,-4.396806E-2,-1.6237494E-2,-4.0860705E-2,6.884415E-3],"categories":[],"categories_nodes":[],"categories_segments":[],"categories_sizes":[],"default_left":[0,0,0,0,0,0,0,0,0,0,0,0,0,0,0,0,0,0,0,0,0,0,0,0,0,0,0,0,0,0,0],"id":11,"left_children":[1,3,5,7,9,11,13,-1,15,17,-1,-1,-1,19,21,23,25,27,-1,29,-1,-1,-1,-1,-1,-1,-1,-1,-1,-1,-1],"loss_changes":[1.15128426E2,7.137763E1,6.562762E1,1.4223373E1,1.5800146E1,4.1982803E0,1.04695045E2,0E0,6.007782E0,4.5751038E0,0E0,0E0,0E0,4.1318832E1,7.222084E0,7.6982117E-1,1.18896055E1,1.5273209E0,0E0,3.5542816E1,0E0,0E0,0E0,0E0,0E0,0E0,0E0,0E0,0E0,0E0,0E0],"parents":[2147483647,0,0,1,1,2,2,3,3,4,4,5,5,6,6,8,8,9,9,13,13,14,14,15,15,16,16,17,17,19,19],"right_children":[2,4,6,8,10,12,14,-1,16,18,-1,-1,-1,20,22,24,26,28,-1,30,-1,-1,-1,-1,-1,-1,-1,-1,-1,-1,-1],"split_conditions":[5.85E1,1.19362915E2,6E0,5.16E0,3.1E1,3.34632E1,1E2,-8.535575E-3,3.8E-1,7.085318E-1,1.5792878E-2,-4.91371E-2,-1.413792E-2,2.9346E1,1.1E1,1.362E1,5E0,4.125E1,-3.3341718E-3,1E0,3.7446216E-2,3.0173194E-3,4.04085E-2,1.9257793E-2,4.219678E-2,3.7174273E-2,-5.017251E-3,-4.396806E-2,-1.6237494E-2,-4.0860705E-2,6.884415E-3],"split_indices":[74,110,39,69,0,76,37,0,112,6,0,0,0,76,72,69,39,65,0,11,0,0,0,0,0,0,0,0,0,0,0],"split_type":[0,0,0,0,0,0,0,0,0,0,0,0,0,0,0,0,0,0,0,0,0,0,0,0,0,0,0,0,0,0,0],"sum_hessian":[3.009894E2,1.3191162E2,1.690778E2,1.0157783E2,3.033379E1,4.5396057E1,1.2368174E2,6.1050897E0,9.547274E1,2.2304659E1,8.02913E0,4.01771E1,5.2189555E0,8.3942726E1,3.9739017E1,7.269365E1,2.277909E1,1.7277037E1,5.027623E0,7.606838E1,7.874345E0,5.8473577E0,3.389166E1,5.6140766E0,6.707957E1,1.34491415E1,9.32995E0,1.1803057E1,5.47398E0,5.8385365E1,1.7683016E1],"tree_param":{"num_deleted":"0","num_feature":"119","num_nodes":"31","size_leaf_vector":"1"}},{"base_weights":[-1.4649452E-2,6.817212E-1,-5.8759004E-1,1.2199574E0,-2.4489455E-1,-4.7080223E-2,-1.9053811E-1,-9.461257E-3,4.1112695E-2,1.0259186E0,-9.2850804E-1,-6.349948E-1,9.716727E-1,3.757131E-2,1.0297201E-2,-1.2010502E0,3.5666435E-3,-9.87089E-1,3.9034307E-2,4.102925E-2,-1.4759211E-2,-1.4953802E-2,-4.3611936E-2,-1.3939418E-2,-4.0984757E-2],"categories":[],"categories_nodes":[],"categories_segments":[],"categories_sizes":[],"default_left":[0,0,0,0,0,0,0,0,0,0,0,0,0,0,0,0,0,0,0,0,0,0,0,0,0],"id":12,"left_children":[1,3,5,7,9,-1,11,-1,-1,13,15,17,19,-1,-1,21,-1,23,-1,-1,-1,-1,-1,-1,-1],"loss_changes":[1.2183545E2,6.92634E1,6.470793E1,2.0962097E1,4.642635E1,0E0,6.345564E1,0E0,0E0,2.099371E0,1.0177832E1,6.2281864E1,2.0822567E1,0E0,0E0,3.6189308E0,0E0,1.3885925E1,0E0,0E0,0E0,0E0,0E0,0E0,0E0],"parents":[2147483647,0,0,1,1,2,2,3,3,4,4,6,6,9,9,10,10,11,11,12,12,15,15,17,17],"right_children":[2,4,6,8,10,-1,12,-1,-1,14,16,18,20,-1,-1,22,-1,24,-1,-1,-1,-1,-1,-1,-1],"split_conditions":[5.87E1,1E0,6E0,2E0,4.54E1,-4.7080223E-2,1.4752958E0,-9.461257E-3,4.1112695E-2,3.25128E1,3E-2,2.9346E1,6.082E1,3.757131E-2,1.0297201E-2,1.2030142E2,3.5666435E-3,1.6606E1,3.9034307E-2,4.102925E-2,-1.4759211E-2,-1.4953802E-2,-4.3611936E-2,-1.3939418E-2,-4.0984757E-2],"split_indices":[74,113,39,39,74,0,111,0,0,76,95,76,69,0,0,110,0,76,0,0,0,0,0,0,0],"split_type":[0,0,0,0,0,0,0,0,0,0,0,0,0,0,0,0,0,0,0,0,0,0,0,0,0],"sum_hessian":[3.0238565E2,1.3628323E2,1.6610242E2,8.597605E1,5.0307186E1,4.648443E1,1.19618E2,7.467735E0,7.8508316E1,1.7282415E1,3.302477E1,8.708221E1,3.253579E1,1.192756E1,5.354856E0,2.610693E1,6.917841E0,7.434855E1,1.2733652E1,2.5739138E1,6.7966514E0,8.189758E0,1.7917171E1,3.277702E1,4.1571533E1],"tree_param":{"num_deleted":"0","num_feature":"119","num_nodes":"25","size_leaf_vector":"1"}},{"base_weights":[8.095161E-3,7.4117E-1,-4.5793965E-1,-5.115087E-1,4.10153E-2,-1.3803514E0,-9.640529E-2,2.5564468E-2,-8.1880945E-1,1.8127856E-5,-1.545982E0,-5.818995E-1,8.740422E-1,-1.1241615E0,6.9756517E-3,-4.9113553E-2,-2.5538955E-2,-8.190467E-1,7.418904E-1,-2.5229737E-2,1.1391217E0,-3.8610764E-2,-1.3702501E-2,9.2237175E-4,-3.193022E-2,3.6231566E-2,-1.5717183E-3,4.194784E-2,1.5279089E-2],"categories":[],"categories_nodes":[],"categories_segments":[],"categories_sizes":[],"default_left":[0,0,0,0,0,0,0,0,0,0,0,0,0,0,0,0,0,0,0,0,0,0,0,0,0,0,0,0,0],"id":13,"left_children":[1,3,5,7,-1,9,11,-1,13,-1,15,17,19,21,-1,-1,-1,23,25,-1,27,-1,-1,-1,-1,-1,-1,-1,-1],"loss_changes":[1.0375863E2,9.373237E1,6.153201E1,1.7966717E1,0E0,1.206308E1,6.433675E1,0E0,1.1326384E1,0E0,6.07666E-1,2.947139E1,2.2173061E1,1.8254013E0,0E0,0E0,0E0,1.6392567E1,5.590479E0,0E0,5.2917633E0,0E0,0E0,0E0,0E0,0E0,0E0,0E0,0E0],"parents":[2147483647,0,0,1,1,2,2,3,3,5,5,6,6,8,8,10,10,11,11,12,12,13,13,17,17,18,18,20,20],"right_children":[2,4,6,8,-1,10,12,-1,14,-1,16,18,20,22,-1,-1,-1,24,26,-1,28,-1,-1,-1,-1,-1,-1,-1,-1],"split_conditions":[5.52E1,-1.512E3,6E0,4.53E1,4.10153E-2,6.5E-1,1.197359E0,2.5564468E-2,3.1E1,1.8127856E-5,1.1139E2,9.344921E1,9E-2,2.61E0,6.9756517E-3,-4.9113553E-2,-2.5538955E-2,5.513625E0,7.9E-1,-2.5229737E-2,1E2,-3.8610764E-2,-1.3702501E-2,9.2237175E-4,-3.193022E-2,3.6231566E-2,-1.5717183E-3,4.194784E-2,1.5279089E-2],"split_indices":[74,92,39,74,0,109,111,0,0,0,69,110,13,109,0,0,0,63,109,0,1,0,0,0,0,0,0,0,0],"split_type":[0,0,0,0,0,0,0,0,0,0,0,0,0,0,0,0,0,0,0,0,0,0,0,0,0,0,0,0,0],"sum_hessian":[3.006358E2,1.1658155E2,1.8405428E2,3.888495E1,7.76966E1,5.055798E1,1.3349629E2,6.602258E0,3.228269E1,5.5098696E0,4.504811E1,8.944999E1,4.4046307E1,2.5009928E1,7.2727604E0,3.7897392E1,7.1507163E0,7.6409294E1,1.3040691E1,5.409742E0,3.8636562E1,1.8864214E1,6.1457148E0,1.7317873E1,5.909142E1,7.807112E0,5.233579E0,2.5964504E1,1.267206E1],"tree_param":{"num_deleted":"0","num_feature":"119","num_nodes":"29","size_leaf_vector":"1"}},{"base_weights":[7.5563155E-2,6.6800314E-1,-3.935586E-1,1.1774255E0,-2.436264E-1,-1.3500534E0,-5.465446E-2,-1.3310471E-2,4.051598E-2,1.0328968E0,-9.394527E-1,-7.4316853E-1,-4.8615508E-2,-6.5268147E-1,1.1840681E0,9.361244E-3,3.8307816E-2,-2.5122042E-3,-1.2332519E0,-3.7612498E-2,-6.6010454E-3,-8.3791745E-1,3.5446018E-2,7.334834E-3,3.992573E-2,-2.3398304E-2,-4.3929256E-2,-3.3869997E-2,2.1508785E-2],"categories":[],"categories_nodes":[],"categories_segments":[],"categories_sizes":[],"default_left":[0,0,0,0,0,0,0,0,0,0,0,0,0,0,0,0,0,0,0,0,0,0,0,0,0,0,0,0,0],"id":14,"left_children":[1,3,5,7,9,11,13,-1,-1,15,17,19,-1,21,23,-1,-1,-1,25,-1,-1,27,-1,-1,-1,-1,-1,-1,-1],"loss_changes":[8.26603E1,6.155267E1,5.355511E1,2.4739288E1,4.4332054E1,5.0619965E0,9.3113266E1,0E0,0E0,2.3565445E0,7.7797413E0,3.773426E0,0E0,3.0257183E1,4.9976845E0,0E0,0E0,0E0,5.4354477E-1,0E0,0E0,3.6528286E1,0E0,0E0,0E0,0E0,0E0,0E0,0E0],"parents":[2147483647,0,0,1,1,2,2,3,3,4,4,5,5,6,6,9,9,10,10,11,11,13,13,14,14,18,18,21,21],"right_children":[2,4,6,8,10,12,14,-1,-1,16,18,20,-1,22,24,-1,-1,-1,26,-1,-1,28,-1,-1,-1,-1,-1,-1,-1],"split_conditions":[5.84E1,1E0,6E0,2E0,4.54E1,6.17E1,1E2,-1.3310471E-2,4.051598E-2,4.1739937E-2,5.2897335E1,2.64552E1,-4.8615508E-2,6.72E0,1.1E1,9.361244E-3,3.8307816E-2,-2.5122042E-3,1.0153828E1,-3.7612498E-2,-6.6010454E-3,9.066667E-1,3.5446018E-2,7.334834E-3,3.992573E-2,-2.3398304E-2,-4.3929256E-2,-3.3869997E-2,2.1508785E-2],"split_indices":[74,113,39,39,74,74,37,0,0,8,10,76,0,108,72,0,0,0,115,0,0,5,0,0,0,0,0,0,0],"split_type":[0,0,0,0,0,0,0,0,0,0,0,0,0,0,0,0,0,0,0,0,0,0,0,0,0,0,0,0,0],"sum_hessian":[2.9440024E2,1.2991351E2,1.6448671E2,8.31316E1,4.678192E1,4.1785194E1,1.2270151E2,7.7386646E0,7.539294E1,1.6197174E1,3.058475E1,1.4728264E1,2.705693E1,8.328419E1,3.9417324E1,5.0645494E0,1.1132624E1,8.396681E0,2.2188068E1,6.296635E0,8.431628E0,7.643441E1,6.8497715E0,5.9583974E0,3.3458927E1,9.853224E0,1.2334846E1,6.478199E1,1.1652425E1],"tree_param":{"num_deleted":"0","num_feature":"119","num_nodes":"29","size_leaf_vector":"1"}},{"base_weights":[6.616522E-4,6.2734795E-1,-4.7778153E-1,-4.7238186E-1,1.1632085E0,-6.7433375E-1,7.6283544E-1,2.6109932E-2,-7.700272E-1,4.0033754E-2,2.5700783E-2,-8.9797634E-1,3.9243713E-1,-2.3978882E-2,3.8417935E-2,-1.684776E-1,-4.1769195E-2,-2.8058838E-2,3.3851333E-2,-9.8869807E-1,1.7231818E-2,-4.238734E-2,3.9410416E-2,-2.6445722E-2,3.126464E-2,-3.9113187E-3,-3.4762826E-2],"categories":[],"categories_nodes":[],"categories_segments":[],"categories_sizes":[],"default_left":[0,0,0,0,0,0,0,0,0,0,0,0,0,0,0,0,0,0,0,0,0,0,0,0,0,0,0],"id":15,"left_children":[1,3,5,7,9,11,13,-1,15,-1,17,19,21,-1,-1,23,-1,-1,-1,25,-1,-1,-1,-1,-1,-1,-1],"loss_changes":[9.005858E1,7.75636E1,4.2267456E1,1.8432411E1,1.694947E1,3.5839676E1,2.0924278E1,0E0,1.3181677E1,0E0,1.5502057E1,1.7285065E1,4.6982834E1,0E0,0E0,1.8957615E1,0E0,0E0,0E0,1.6607155E1,0E0,0E0,0E0,0E0,0E0,0E0,0E0],"parents":[2147483647,0,0,1,1,2,2,3,3,4,4,5,5,6,6,8,8,10,10,11,11,12,12,15,15,19,19],"right_children":[2,4,6,8,10,12,14,-1,16,-1,18,20,22,-1,-1,24,-1,-1,-1,26,-1,-1,-1,-1,-1,-1,-1],"split_conditions":[5.82E1,-1.512E3,7.65E1,4.53E1,5.52E1,6.67E0,1.107649E0,2.6109932E-2,1.2601266E1,4.0033754E-2,3.37E0,7.763333E1,9.828E1,-2.3978882E-2,3.8417935E-2,7E-1,-4.1769195E-2,-2.8058838E-2,3.3851333E-2,6.13E1,1.7231818E-2,-4.238734E-2,3.9410416E-2,-2.6445722E-2,3.126464E-2,-3.9113187E-3,-3.4762826E-2],"split_indices":[74,92,74,74,74,108,111,0,115,0,108,61,26,0,0,6,0,0,0,74,0,0,0,0,0,0,0],"split_type":[0,0,0,0,0,0,0,0,0,0,0,0,0,0,0,0,0,0,0,0,0,0,0,0,0,0,0],"sum_hessian":[2.973123E2,1.2860364E2,1.6870863E2,4.2130863E1,8.647278E1,1.4629608E2,2.241255E1,7.060059E0,3.50708E1,7.485574E1,1.1617039E1,1.21215096E2,2.5080992E1,5.3281927E0,1.7084358E1,1.8883335E1,1.6187468E1,6.28051E0,5.336529E0,1.1470791E2,6.5071864E0,8.167045E0,1.6913948E1,1.21924925E1,6.6908436E0,1.9504599E1,9.520331E1],"tree_param":{"num_deleted":"0","num_feature":"119","num_nodes":"27","size_leaf_vector":"1"}},{"base_weights":[3.9305E-2,-6.3661E-1,3.8026837E-1,-1.1014899E0,-2.513658E-3,-2.3348771E-1,1.2361819E0,-1.5486156E0,-1.8202165E-1,5.0284344E-1,-1.1818215E0,7.8038734E-1,-6.922667E-1,5.1176316E-1,4.021637E-2,-5.0725825E-2,-2.299968E-2,2.3163833E-2,-3.5251718E-2,-5.874468E-1,3.997096E-2,-2.0754049E-2,-4.337317E-2,-1.2163705E-2,1.0201266E0,-9.4622576E-1,5.655706E-1,-9.207093E-3,3.384262E-2,-4.5584448E-2,2.3830961E-2,1.2383754E-2,3.6390364E-2,-3.373995E-2,1.2334024E-2,3.9696384E-2,-1.0012381E-2],"categories":[],"categories_nodes":[],"categories_segments":[],"categories_sizes":[],"default_left":[0,0,0,0,0,0,0,0,0,0,0,0,0,0,0,0,0,0,0,0,0,0,0,0,0,0,0,0,0,0,0,0,0,0,0,0,0],"id":16,"left_children":[1,3,5,7,9,11,13,15,17,19,21,23,25,27,-1,-1,-1,-1,-1,29,-1,-1,-1,-1,31,33,35,-1,-1,-1,-1,-1,-1,-1,-1,-1,-1],"loss_changes":[6.712882E1,2.8667229E1,1.0227553E2,2.2526161E1,2.6524525E1,5.382229E1,4.923813E0,1.9884262E0,2.05165E1,2.930516E1,1.5901566E-2,1.095854E1,2.6184998E1,7.044966E0,0E0,0E0,0E0,0E0,0E0,2.0419659E1,0E0,0E0,0E0,0E0,2.6669998E0,1.6905327E1,1.0437075E1,0E0,0E0,0E0,0E0,0E0,0E0,0E0,0E0,0E0,0E0],"parents":[2147483647,0,0,1,1,2,2,3,3,4,4,5,5,6,6,7,7,8,8,9,9,10,10,11,11,12,12,13,13,19,19,24,24,25,25,26,26],"right_children":[2,4,6,8,10,12,14,16,18,20,22,24,26,28,-1,-1,-1,-1,-1,30,-1,-1,-1,-1,32,34,36,-1,-1,-1,-1,-1,-1,-1,-1,-1,-1],"split_conditions":[6E0,6.8465525E-1,1E2,3.4642212E1,5E0,2.6E1,6.9E-2,3.2502844E0,1.16E1,1E0,7.746356E-1,1.4E-1,9.113333E-1,2.23818E1,4.021637E-2,-5.0725825E-2,-2.299968E-2,2.3163833E-2,-3.5251718E-2,9.811E1,3.997096E-2,-2.0754049E-2,-4.337317E-2,-1.2163705E-2,-1.11E2,6.66E0,2.3E1,-9.207093E-3,3.384262E-2,-4.5584448E-2,2.3830961E-2,1.2383754E-2,3.6390364E-2,-3.373995E-2,1.2334024E-2,3.9696384E-2,-1.0012381E-2],"split_indices":[39,6,37,115,39,0,5,111,24,39,5,13,5,76,0,0,0,0,0,26,0,0,0,0,90,108,39,0,0,0,0,0,0,0,0,0,0],"split_type":[0,0,0,0,0,0,0,0,0,0,0,0,0,0,0,0,0,0,0,0,0,0,0,0,0,0,0,0,0,0,0,0,0,0,0,0,0],"sum_hessian":[2.8831467E2,9.613861E1,1.9217606E2,5.4741898E1,4.139671E1,1.1248768E2,7.968838E1,3.6067566E1,1.8674332E1,2.9521692E1,1.1875018E1,3.4648033E1,7.7839645E1,1.1270491E1,6.8417885E1,2.8933006E1,7.13456E0,9.642452E0,9.031879E0,1.2892929E1,1.6628763E1,6.1912894E0,5.6837287E0,5.582217E0,2.9065817E1,6.513908E1,1.2700565E1,5.0943947E0,6.176096E0,7.6535325E0,5.239397E0,8.266339E0,2.0799479E1,5.7863174E1,7.275902E0,6.5698586E0,6.130707E0],"tree_param":{"num_deleted":"0","num_feature":"119","num_nodes":"37","size_leaf_vector":"1"}},{"base_weights":[2.3216035E-2,6.287295E-1,-4.383538E-1,-3.3324766E-1,1.1250347E0,-1.3581421E0,-8.2612775E-2,2.8360873E-2,-6.0830295E-1,3.91697E-2,9.094048E-2,-9.0044874E-1,-4.6001766E-2,-6.328803E-1,1.072375E0,1.9372497E-2,-9.3267316E-1,-2.8671963E-2,2.5477482E-2,-1.2385436E-2,-3.937765E-2,-9.689662E-1,4.9832723E-1,3.5410103E-1,4.0814586E-2,-3.675764E-2,1.0795906E-2,-3.4528386E-2,8.026266E-3,3.581722E-2,-6.1138063E-3,-2.1452997E-2,3.409201E-2],"categories":[],"categories_nodes":[],"categories_segments":[],"categories_sizes":[],"default_left":[0,0,0,0,0,0,0,0,0,0,0,0,0,0,0,0,0,0,0,0,0,0,0,0,0,0,0,0,0,0,0,0,0],"id":17,"left_children":[1,3,5,7,9,11,13,-1,15,-1,17,19,-1,21,23,-1,25,-1,-1,-1,-1,27,29,31,-1,-1,-1,-1,-1,-1,-1,-1,-1],"loss_changes":[8.117934E1,6.064514E1,5.3588993E1,1.6254572E1,1.5244301E1,1.3565674E0,7.753546E1,0E0,1.6012846E1,0E0,1.2384929E1,2.3232365E0,0E0,3.2172085E1,7.253376E0,0E0,1.2143005E1,0E0,0E0,0E0,0E0,1.500845E1,1.0153776E1,1.2467892E1,0E0,0E0,0E0,0E0,0E0,0E0,0E0,0E0,0E0],"parents":[2147483647,0,0,1,1,2,2,3,3,4,4,5,5,6,6,8,8,10,10,11,11,13,13,14,14,16,16,21,21,22,22,23,23],"right_children":[2,4,6,8,10,12,14,-1,16,-1,18,20,-1,22,24,-1,26,-1,-1,-1,-1,28,30,32,-1,-1,-1,-1,-1,-1,-1,-1,-1],"split_conditions":[5.87E1,-1.512E3,6E0,4.53E1,5.52E1,6.17E1,1E2,2.8360873E-2,1E0,3.91697E-2,2.28E-1,8.464451E-2,-4.6001766E-2,1E0,6.9E-3,1.9372497E-2,6E0,-2.8671963E-2,2.5477482E-2,-1.2385436E-2,-3.937765E-2,7.24251E0,2.6696192E1,6.3754725E-1,4.0814586E-2,-3.675764E-2,1.0795906E-2,-3.4528386E-2,8.026266E-3,3.581722E-2,-6.1138063E-3,-2.1452997E-2,3.409201E-2],"split_indices":[74,92,39,74,74,74,37,0,113,0,6,8,0,11,6,0,39,0,0,0,0,106,63,111,0,0,0,0,0,0,0,0,0],"split_type":[0,0,0,0,0,0,0,0,0,0,0,0,0,0,0,0,0,0,0,0,0,0,0,0,0,0,0,0,0,0,0,0,0],"sum_hessian":[2.874113E2,1.2417928E2,1.6323201E2,4.236176E1,8.181753E1,4.426768E1,1.1896433E2,6.788055E0,3.5573704E1,6.923402E1,1.2583506E1,1.4964151E1,2.930353E1,8.109373E1,3.7870598E1,6.9417257E0,2.8631979E1,5.067116E0,7.51639E0,8.341072E0,6.623079E0,6.275309E1,1.8340641E1,1.189829E1,2.597231E1,2.3473837E1,5.158141E0,5.4863377E1,7.889714E0,8.756998E0,9.583643E0,5.027719E0,6.87057E0],"tree_param":{"num_deleted":"0","num_feature":"119","num_nodes":"33","size_leaf_vector":"1"}},{"base_weights":[1.50631005E-2,6.3311064E-1,-3.1514415E-1,1.2356162E-1,1.1699167E0,-6.0164038E-2,-8.072295E-1,9.994682E-1,-5.784527E-1,3.7335847E-2,1.2292611E-2,-3.9030826E-1,5.102756E-1,-1.1392049E0,-3.3031374E-2,3.6073584E-2,6.9800704E-3,-1.8886013E-1,-3.6565106E-2,-8.3519405E-1,1.9545738E-1,5.6487113E-2,1.0117574E0,3.3677302E-3,-1.4117802E0,-6.0065526E-1,3.2289844E-2,-2.1075595E-2,1.7498424E-2,-3.0426638E-2,5.6571406E-3,2.634109E-2,-5.3555104E-3,3.4980077E-2,-1.2123001E-2,9.350872E-3,3.5560954E-2,-4.5417354E-2,-1.768746E-2,-3.5882797E-2,6.995282E-3],"categories":[],"categories_nodes":[],"categories_segments":[],"categories_sizes":[],"default_left":[0,0,0,0,0,0,0,0,0,0,0,0,0,0,0,0,0,0,0,0,0,0,0,0,0,0,0,0,0,0,0,0,0,0,0,0,0,0,0,0,0],"id":18,"left_children":[1,3,5,7,9,11,13,15,17,-1,-1,19,21,23,25,-1,-1,27,-1,29,31,33,35,-1,37,39,-1,-1,-1,-1,-1,-1,-1,-1,-1,-1,-1,-1,-1,-1,-1],"loss_changes":[5.9552467E1,2.7458828E1,2.3683708E1,3.406661E1,1.8618164E0,2.4190195E1,1.6430477E1,3.2663345E0,7.203088E0,0E0,0E0,2.151028E1,1.0518639E1,1.5745384E1,1.4160702E1,0E0,0E0,8.969064E0,0E0,8.914066E0,9.555051E0,1.4275418E1,1.9900341E0,0E0,1.5740433E0,7.927257E0,0E0,0E0,0E0,0E0,0E0,0E0,0E0,0E0,0E0,0E0,0E0,0E0,0E0,0E0,0E0],"parents":[2147483647,0,0,1,1,2,2,3,3,4,4,5,5,6,6,7,7,8,8,11,11,12,12,13,13,14,14,17,17,19,19,20,20,21,21,22,22,24,24,25,25],"right_children":[2,4,6,8,10,12,14,16,18,-1,-1,20,22,24,26,-1,-1,28,-1,30,32,34,36,-1,38,40,-1,-1,-1,-1,-1,-1,-1,-1,-1,-1,-1,-1,-1,-1,-1],"split_conditions":[3.5E-1,4.4E1,7.028E1,2E0,1.39E1,6.001984E-1,1.501E2,2.217469E0,2.9166666E-1,3.7335847E-2,1.2292611E-2,1.6142151E0,2.405E1,3.6E-1,2.70684E1,3.6073584E-2,6.9800704E-3,3.4E-1,-3.6565106E-2,5.612E1,2E0,7.14E0,4.39E1,3.3677302E-3,-1.026E3,4.0529655E1,3.2289844E-2,-2.1075595E-2,1.7498424E-2,-3.0426638E-2,5.6571406E-3,2.634109E-2,-5.3555104E-3,3.4980077E-2,-1.2123001E-2,9.350872E-3,3.5560954E-2,-4.5417354E-2,-1.768746E-2,-3.5882797E-2,6.995282E-3],"split_indices":[112,18,69,22,24,23,69,111,23,0,0,111,69,112,76,0,0,112,0,69,22,69,68,0,92,62,0,0,0,0,0,0,0,0,0,0,0,0,0,0,0],"split_type":[0,0,0,0,0,0,0,0,0,0,0,0,0,0,0,0,0,0,0,0,0,0,0,0,0,0,0,0,0,0,0,0,0,0,0,0,0,0,0,0,0],"sum_hessian":[2.8868176E2,1.0015288E2,1.8852887E2,5.2423145E1,4.7729736E1,1.2542498E2,6.310389E1,2.3103577E1,2.9319567E1,4.247354E1,5.2561927E0,7.985661E1,4.5568367E1,4.358033E1,1.952356E1,1.7490831E1,5.612745E0,1.9534086E1,9.785481E0,4.512012E1,3.4736492E1,2.4902542E1,2.0665825E1,7.88655E0,3.569378E1,1.3429892E1,6.0936694E0,1.1889479E1,7.6446075E0,3.849935E1,6.62077E0,1.1674248E1,2.3062244E1,6.6948924E0,1.8207651E1,5.054205E0,1.5611619E1,3.051918E1,5.174599E0,7.524733E0,5.905158E0],"tree_param":{"num_deleted":"0","num_feature":"119","num_nodes":"41","size_leaf_vector":"1"}},{"base_weights":[-2.154931E-3,6.536879E-1,-3.900495E-1,1.2552477E0,-2.3024534E-1,-1.1995475E0,-6.0434077E-2,3.8854107E-2,1.7873116E-2,9.2346215E-1,-9.054941E-1,-1.3899524E0,8.755137E-3,-5.8322805E-1,1.04086E0,5.709616E-3,3.627924E-2,-1.1290882E0,3.9534914E-4,-2.220897E-2,-1.4595499E0,-7.7498275E-1,3.3320025E-2,3.8537793E-2,4.675076E-3,-4.429597E-2,-1.7117802E-2,-4.6398778E-2,-2.232397E-2,-3.3834856E-2,9.379945E-3],"categories":[],"categories_nodes":[],"categories_segments":[],"categories_sizes":[],"default_left":[0,0,0,0,0,0,0,0,0,0,0,0,0,0,0,0,0,0,0,0,0,0,0,0,0,0,0,0,0,0,0],"id":19,"left_children":[1,3,5,7,9,11,13,-1,-1,15,17,19,-1,21,23,-1,-1,25,-1,-1,27,29,-1,-1,-1,-1,-1,-1,-1,-1,-1],"loss_changes":[7.310351E1,5.7293064E1,4.798568E1,3.321991E-1,3.5861057E1,1.5520393E1,7.576666E1,0E0,0E0,3.0961733E0,6.0569363E0,2.6372528E-1,0E0,3.0243786E1,8.691952E0,0E0,0E0,3.05196E0,0E0,0E0,5.587082E-1,3.1734951E1,0E0,0E0,0E0,0E0,0E0,0E0,0E0,0E0,0E0],"parents":[2147483647,0,0,1,1,2,2,3,3,4,4,5,5,6,6,9,9,10,10,11,11,13,13,14,14,17,17,20,20,21,21],"right_children":[2,4,6,8,10,12,14,-1,-1,16,18,20,-1,22,24,-1,-1,26,-1,-1,28,30,-1,-1,-1,-1,-1,-1,-1,-1,-1],"split_conditions":[5.52E1,1E0,6E0,7.223333E1,4.54E1,7.75E0,1E2,3.8854107E-2,1.7873116E-2,4.143605E-2,6E0,-4.725E1,8.755137E-3,6.67E0,2.94E2,5.709616E-3,3.627924E-2,6.9575214E-1,3.9534914E-4,-2.220897E-2,3.3740294E0,1E0,3.3320025E-2,3.8537793E-2,4.675076E-3,-4.429597E-2,-1.7117802E-2,-4.6398778E-2,-2.232397E-2,-3.3834856E-2,9.379945E-3],"split_indices":[74,113,39,61,74,108,37,0,0,8,39,70,0,108,71,0,0,6,0,0,111,11,0,0,0,0,0,0,0,0,0],"split_type":[0,0,0,0,0,0,0,0,0,0,0,0,0,0,0,0,0,0,0,0,0,0,0,0,0,0,0,0,0,0,0],"sum_hessian":[2.844592E2,1.05238625E2,1.7922058E2,6.2313957E1,4.2924667E1,5.0626183E1,1.2859439E2,5.7253456E1,5.0605E0,1.5589497E1,2.733517E1,4.504444E1,5.5817413E0,8.7739914E1,4.0854485E1,5.172236E0,1.0417261E1,2.179565E1,5.5395193E0,6.186753E0,3.885769E1,7.960152E1,8.138397E0,3.1413176E1,9.441307E0,1.1806205E1,9.989446E0,3.2963078E1,5.8946104E0,6.013087E1,1.9470644E1],"tree_param":{"num_deleted":"0","num_feature":"119","num_nodes":"31","size_leaf_vector":"1"}},{"base_weights":[-3.4988392E-2,5.913971E-1,-5.054205E-1,-3.6229572E-1,1.062218E0,-6.816113E-1,5.72698E-1,2.4285188E-2,-6.2346137E-1,3.8130317E-2,9.788347E-3,-8.6798155E-1,3.337917E-1,-3.1335715E-2,3.676273E-2,1.7973453E-2,-9.2067176E-1,-2.1401474E-2,2.787866E-2,-9.697117E-1,2.965792E-2,-4.036682E-2,3.717378E-2,-2.968167E-3,-3.4748044E-2,-1.3060622E-2,-3.5887733E-2],"categories":[],"categories_nodes":[],"categories_segments":[],"categories_sizes":[],"default_left":[0,0,0,0,0,0,0,0,0,0,0,0,0,0,0,0,0,0,0,0,0,0,0,0,0,0,0],"id":20,"left_children":[1,3,5,7,9,11,13,-1,15,-1,17,19,21,-1,-1,-1,23,-1,-1,25,-1,-1,-1,-1,-1,-1,-1],"loss_changes":[8.5622665E1,5.658916E1,3.2126995E1,1.3661052E1,1.828086E1,2.76324E1,2.7327171E1,0E0,1.3739742E1,0E0,1.1305492E1,2.4420418E1,3.783069E1,0E0,0E0,0E0,5.3980064E0,0E0,0E0,1.3120064E1,0E0,0E0,0E0,0E0,0E0,0E0,0E0],"parents":[2147483647,0,0,1,1,2,2,3,3,4,4,5,5,6,6,8,8,10,10,11,11,12,12,16,16,19,19],"right_children":[2,4,6,8,10,12,14,-1,16,-1,18,20,22,-1,-1,-1,24,-1,-1,26,-1,-1,-1,-1,-1,-1,-1],"split_conditions":[5.87E1,-1.512E3,7.65E1,4.53E1,5.52E1,6.67E0,7.5E-1,2.4285188E-2,1.02E0,3.8130317E-2,3.38E0,7.763333E1,9.828E1,-3.1335715E-2,3.676273E-2,1.7973453E-2,1.4861112E0,-2.1401474E-2,2.787866E-2,3.78E0,2.965792E-2,-4.036682E-2,3.717378E-2,-2.968167E-3,-3.4748044E-2,-1.3060622E-2,-3.5887733E-2],"split_indices":[74,92,74,74,74,108,109,0,109,0,108,61,26,0,0,0,73,0,0,108,0,0,0,0,0,0,0],"split_type":[0,0,0,0,0,0,0,0,0,0,0,0,0,0,0,0,0,0,0,0,0,0,0,0,0,0,0],"sum_hessian":[2.8757715E2,1.2308709E2,1.6449007E2,4.0726013E1,8.236108E1,1.4193831E2,2.255175E1,6.7787457E0,3.3947266E1,6.838712E1,1.3973953E1,1.20193825E2,2.174449E1,6.1818256E0,1.6369925E1,6.2749743E0,2.7672293E1,7.9493885E0,6.0245643E0,1.14680374E2,5.51345E0,7.322239E0,1.442225E1,6.7775335E0,2.0894758E1,3.5580383E1,7.909999E1],"tree_param":{"num_deleted":"0","num_feature":"119","num_nodes":"27","size_leaf_vector":"1"}},{"base_weights":[-3.838554E-2,-7.1251947E-1,3.220772E-1,-1.0668157E0,-4.1588932E-2,-2.5930285E-1,1.1654823E0,-1.3666115E0,1.920531E-1,-6.637004E-1,1.0050582E0,-7.09372E-1,5.918193E-1,4.394311E-3,1.2355189E0,-1.4541417E0,-1.3929562E-2,3.4041345E-2,-2.9050127E-2,-1.2622465E0,1.025255E-2,4.0047664E-2,9.425848E-3,-9.6545357E-1,2.4046687E-2,1.1634232E0,-3.0860877E-2,3.909084E-2,9.229672E-3,-4.569781E-2,-2.3264866E-2,-4.3879144E-2,-2.0050967E-2,-3.882289E-2,3.662389E-3,1.0498405E-2,4.0817104E-2],"categories":[],"categories_nodes":[],"categories_segments":[],"categories_sizes":[],"default_left":[0,0,0,0,0,0,0,0,0,0,0,0,0,0,0,0,0,0,0,0,0,0,0,0,0,0,0,0,0,0,0,0,0,0,0,0,0],"id":21,"left_children":[1,3,5,7,9,11,13,15,17,19,21,23,25,-1,27,29,-1,-1,-1,31,-1,-1,-1,33,-1,35,-1,-1,-1,-1,-1,-1,-1,-1,-1,-1,-1],"loss_changes":[6.927452E1,2.3436203E1,9.158238E1,2.4986107E1,2.439913E1,4.318504E1,5.021637E0,2.9516907E0,1.667742E1,1.4902599E1,2.3856716E0,2.9579262E1,3.8078506E1,0E0,3.6796875E0,2.1071625E-1,0E0,0E0,0E0,1.216774E-1,0E0,0E0,0E0,2.3051212E1,0E0,3.8771286E0,0E0,0E0,0E0,0E0,0E0,0E0,0E0,0E0,0E0,0E0,0E0],"parents":[2147483647,0,0,1,1,2,2,3,3,4,4,5,5,6,6,7,7,8,8,9,9,10,10,11,11,12,12,14,14,15,15,19,19,23,23,25,25],"right_children":[2,4,6,8,10,12,14,16,18,20,22,24,26,-1,28,30,-1,-1,-1,32,-1,-1,-1,34,-1,36,-1,-1,-1,-1,-1,-1,-1,-1,-1,-1,-1],"split_conditions":[6E0,6.98E-1,1E2,1.1139E2,9.828E1,1.9E1,3.5E-1,4.2266666E1,8.9075E2,2.0094295E0,1.0885064E1,2.9346E1,1.0796E2,4.394311E-3,2.1E1,6.25E1,-1.3929562E-2,3.4041345E-2,-2.9050127E-2,1.73E0,1.025255E-2,4.0047664E-2,9.425848E-3,1E0,2.4046687E-2,2E1,-3.0860877E-2,3.909084E-2,9.229672E-3,-4.569781E-2,-2.3264866E-2,-4.3879144E-2,-2.0050967E-2,-3.882289E-2,3.662389E-3,1.0498405E-2,4.0817104E-2],"split_indices":[39,6,37,69,26,39,109,61,69,111,115,76,69,0,39,66,0,0,0,109,0,0,0,11,0,39,0,0,0,0,0,0,0,0,0,0,0],"split_type":[0,0,0,0,0,0,0,0,0,0,0,0,0,0,0,0,0,0,0,0,0,0,0,0,0,0,0,0,0,0,0,0,0,0,0,0,0],"sum_hessian":[2.8200287E2,9.783856E1,1.841643E2,6.335091E1,3.448765E1,1.0956127E2,7.460304E1,5.1126377E1,1.2224533E1,2.2034836E1,1.2452816E1,7.190538E1,3.765589E1,5.187785E0,6.941526E1,4.566795E1,5.4584284E0,6.8109455E0,5.413587E0,1.36345415E1,8.400293E0,7.3840528E0,5.068763E0,6.2004227E1,9.90115E0,2.8195358E1,9.460532E0,6.404148E1,5.3737755E0,3.9618683E1,6.0492644E0,8.428037E0,5.2065043E0,4.746713E1,1.4537097E1,6.411164E0,2.1784195E1],"tree_param":{"num_deleted":"0","num_feature":"119","num_nodes":"37","size_leaf_vector":"1"}},{"base_weights":[-6.700008E-3,6.4254105E-1,-3.9395893E-1,-4.4597402E-1,3.7529007E-2,-5.804657E-1,6.527156E-1,2.2590991E-2,-7.17697E-1,-8.171651E-1,6.42278E-1,-1.78661E-2,3.670257E-2,1.3091285E-2,-9.6374726E-1,-2.9153547E-1,-1.0825518E0,-3.6022246E-2,3.855517E-2,-1.3779711E-2,-3.6896694E-2,-1.9512106E-2,3.3630855E-2,-3.619751E-2,7.092054E-3],"categories":[],"categories_nodes":[],"categories_segments":[],"categories_sizes":[],"default_left":[0,0,0,0,0,0,0,0,0,0,0,0,0,0,0,0,0,0,0,0,0,0,0,0,0],"id":22,"left_children":[1,3,5,7,-1,9,11,-1,13,15,17,-1,-1,-1,19,21,23,-1,-1,-1,-1,-1,-1,-1,-1],"loss_changes":[7.004677E1,6.9819214E1,3.4655067E1,1.3301046E1,0E0,4.396112E1,2.0417957E1,0E0,9.798578E0,1.6917717E1,3.1891577E1,0E0,0E0,0E0,2.6080818E0,2.3522251E1,1.4073517E1,0E0,0E0,0E0,0E0,0E0,0E0,0E0,0E0],"parents":[2147483647,0,0,1,1,2,2,3,3,5,5,6,6,8,8,9,9,10,10,14,14,15,15,16,16],"right_children":[2,4,6,8,-1,10,12,-1,14,16,18,-1,-1,-1,20,22,24,-1,-1,-1,-1,-1,-1,-1,-1],"split_conditions":[5.52E1,-1.512E3,7.43E1,4.53E1,3.7529007E-2,6.72E0,6.1166453E-1,2.2590991E-2,2.2839E0,4E1,9.828E1,-1.78661E-2,3.670257E-2,1.3091285E-2,7.6876526E0,1E2,6.468486E1,-3.6022246E-2,3.855517E-2,-1.3779711E-2,-3.6896694E-2,-1.9512106E-2,3.3630855E-2,-3.619751E-2,7.092054E-3],"split_indices":[74,92,74,74,0,108,111,0,63,18,26,0,0,0,62,37,63,0,0,0,0,0,0,0,0],"split_type":[0,0,0,0,0,0,0,0,0,0,0,0,0,0,0,0,0,0,0,0,0,0,0,0,0],"sum_hessian":[2.7568842E2,1.0253726E2,1.7315115E2,3.684866E1,6.568861E1,1.476119E2,2.5539263E1,6.249048E0,3.0599613E1,1.2415686E2,2.3455029E1,7.9375744E0,1.7601688E1,5.102089E0,2.5497524E1,4.2837265E1,8.1319595E1,5.688989E0,1.7766039E1,1.0348464E1,1.5149059E1,3.4860844E1,7.97642E0,7.451588E1,6.8037157E0],"tree_param":{"num_deleted":"0","num_feature":"119","num_nodes":"25","size_leaf_vector":"1"}},{"base_weights":[5.7216636E-3,-3.0533287E-1,6.353281E-1,-4.2155167E-1,2.9776355E-2,-1.1902001E0,9.4754595E-1,-1.05154E0,-2.2973782E-1,-4.2838663E-2,-1.6871186E-2,3.7833422E-2,-9.4836766E-1,-1.2641726E-3,-1.2693007E0,-4.2039695E-1,9.248524E-1,-3.9168514E-2,-9.485954E-3,-1.559834E-2,-4.144498E-2,-8.929263E-3,-3.860468E-2,5.37846E-3,3.55523E-2],"categories":[],"categories_nodes":[],"categories_segments":[],"categories_sizes":[],"default_left":[0,0,0,0,0,0,0,0,0,0,0,0,0,0,0,0,0,0,0,0,0,0,0,0,0],"id":23,"left_children":[1,3,5,7,-1,9,11,13,15,-1,-1,-1,17,-1,19,21,23,-1,-1,-1,-1,-1,-1,-1,-1],"loss_changes":[5.5313942E1,2.9055395E1,5.4926407E1,2.0589846E1,0E0,7.2579575E-1,4.978795E1,8.619663E0,3.0420567E1,0E0,0E0,0E0,1.9875298E0,0E0,1.499691E0,1.1778397E1,3.3547516E0,0E0,0E0,0E0,0E0,0E0,0E0,0E0,0E0],"parents":[2147483647,0,0,1,1,2,2,3,3,5,5,6,6,7,7,8,8,12,12,14,14,15,15,16,16],"right_children":[2,4,6,8,-1,10,12,14,16,-1,-1,-1,18,-1,20,22,24,-1,-1,-1,-1,-1,-1,-1,-1],"split_conditions":[1.5E1,3.2E0,0E0,7.1E0,2.9776355E-2,1.2385E-1,6.0725E2,5.975E1,1E2,-4.2838663E-2,-1.6871186E-2,3.7833422E-2,6.772E-1,-1.2641726E-3,1.1122049E1,8.118318E-1,9E0,-3.9168514E-2,-9.485954E-3,-1.559834E-2,-4.144498E-2,-8.929263E-3,-3.860468E-2,5.37846E-3,3.55523E-2],"split_indices":[39,109,88,1,0,6,71,71,37,0,0,0,7,0,115,6,39,0,0,0,0,0,0,0,0],"split_type":[0,0,0,0,0,0,0,0,0,0,0,0,0,0,0,0,0,0,0,0,0,0,0,0,0],"sum_hessian":[2.7928745E2,1.8734442E2,9.194302E1,1.7294763E2,1.4396789E1,1.2765445E1,7.917758E1,3.8676174E1,1.3427145E2,7.7569723E0,5.0084724E0,6.841697E1,1.0760609E1,7.2622876E0,3.1413887E1,1.1613445E2,1.8137001E1,5.7532296E0,5.0073786E0,5.3076267E0,2.610626E1,1.0358875E2,1.2545701E1,5.4473825E0,1.2689619E1],"tree_param":{"num_deleted":"0","num_feature":"119","num_nodes":"25","size_leaf_vector":"1"}},{"base_weights":[2.3465306E-3,6.0522115E-1,-4.1478795E-1,-2.9102153E-1,1.0555323E0,-5.9791565E-1,4.9962166E-1,2.2411719E-2,-5.3030807E-1,3.729686E-2,-3.57371E-3,-8.105576E-1,6.2680465E-1,-2.3319704E-2,3.6237277E-2,1.9460367E-2,-8.08975E-1,-2.4765542E-2,2.7871054E-2,-2.9593873E-1,-1.096402E0,-2.6637465E-2,3.6001157E-2,-8.268352E-3,-3.450815E-2,-2.0757847E-2,3.3473402E-2,-3.662885E-2,9.334857E-3],"categories":[],"categories_nodes":[],"categories_segments":[],"categories_sizes":[],"default_left":[0,0,0,0,0,0,0,0,0,0,0,0,0,0,0,0,0,0,0,0,0,0,0,0,0,0,0,0,0],"id":24,"left_children":[1,3,5,7,9,11,13,-1,15,-1,17,19,21,-1,-1,-1,23,-1,-1,25,27,-1,-1,-1,-1,-1,-1,-1,-1],"loss_changes":[6.899065E1,4.5842415E1,2.7587051E1,1.0171169E1,1.5062584E1,3.613388E1,2.6556938E1,0E0,1.1434471E1,0E0,1.0893158E1,1.6495499E1,1.9741405E1,0E0,0E0,0E0,4.280197E0,0E0,0E0,2.5569191E1,1.366114E1,0E0,0E0,0E0,0E0,0E0,0E0,0E0,0E0],"parents":[2147483647,0,0,1,1,2,2,3,3,4,4,5,5,6,6,8,8,10,10,11,11,12,12,16,16,19,19,20,20],"right_children":[2,4,6,8,10,12,14,-1,16,-1,18,20,22,-1,-1,-1,24,-1,-1,26,28,-1,-1,-1,-1,-1,-1,-1,-1],"split_conditions":[5.84E1,-1.512E3,7.43E1,4.53E1,5.52E1,6.67E0,1.91E0,2.2411719E-2,1E0,3.729686E-2,3.37E0,4E1,9.833E1,-2.3319704E-2,3.6237277E-2,1.9460367E-2,8.696814E0,-2.4765542E-2,2.7871054E-2,1E2,6.468486E1,-2.6637465E-2,3.6001157E-2,-8.268352E-3,-3.450815E-2,-2.0757847E-2,3.3473402E-2,-3.662885E-2,9.334857E-3],"split_indices":[74,92,74,74,74,108,109,0,113,0,108,18,26,0,0,0,62,0,0,37,63,0,0,0,0,0,0,0,0],"split_type":[0,0,0,0,0,0,0,0,0,0,0,0,0,0,0,0,0,0,0,0,0,0,0,0,0,0,0,0,0],"sum_hessian":[2.7126566E2,1.10756E2,1.6050966E2,3.7141922E1,7.361407E1,1.3425175E2,2.6257898E1,6.2831717E0,3.0858751E1,6.2390736E1,1.1223336E1,1.1489246E2,1.9359291E1,9.26571E0,1.699219E1,5.4500556E0,2.5408695E1,6.1141596E0,5.1091766E0,4.224309E1,7.2649376E1,5.0410013E0,1.4318289E1,1.1086899E1,1.4321796E1,3.3642075E1,8.601019E0,6.6991035E1,5.6583395E0],"tree_param":{"num_deleted":"0","num_feature":"119","num_nodes":"29","size_leaf_vector":"1"}},{"base_weights":[-3.561123E-2,5.668396E-1,-4.4602084E-1,-3.1970674E-1,1.0627254E0,-1.2246028E0,-1.2720086E-1,-6.0806394E-1,2.1445783E-2,3.7049945E-2,6.0903486E-2,-8.1098425E-1,-4.159857E-2,-5.896303E-1,1.0193455E0,5.887506E-2,-1.251805E0,2.0364685E-2,-1.6606342E-2,-3.128031E-2,-6.3707787E-3,-7.925257E-1,5.160141E-1,3.5696533E-1,3.830648E-2,-3.5833165E-2,2.6551433E-2,-1.9764448E-2,-4.407883E-2,-2.9411117E-2,1.2930283E-2,3.7497513E-2,-9.158581E-3,-1.2703196E-2,3.0786766E-2],"categories":[],"categories_nodes":[],"categories_segments":[],"categories_sizes":[],"default_left":[0,0,0,0,0,0,0,0,0,0,0,0,0,0,0,0,0,0,0,0,0,0,0,0,0,0,0,0,0,0,0,0,0,0,0],"id":25,"left_children":[1,3,5,7,9,11,13,15,-1,-1,17,19,-1,21,23,25,27,-1,-1,-1,-1,29,31,33,-1,-1,-1,-1,-1,-1,-1,-1,-1,-1,-1],"loss_changes":[6.928029E1,5.0480312E1,4.1015457E1,1.3109184E1,1.2391708E1,1.3215103E0,6.450793E1,1.4642412E1,0E0,0E0,5.2857656E0,1.9480581E0,0E0,2.0058718E1,5.1218033E0,2.0031368E1,5.5675125E-1,0E0,0E0,0E0,0E0,1.765171E1,9.258107E0,6.9725857E0,0E0,0E0,0E0,0E0,0E0,0E0,0E0,0E0,0E0,0E0,0E0],"parents":[2147483647,0,0,1,1,2,2,3,3,4,4,5,5,6,6,7,7,10,10,11,11,13,13,14,14,15,15,16,16,21,21,22,22,23,23],"right_children":[2,4,6,8,10,12,14,16,-1,-1,18,20,-1,22,24,26,28,-1,-1,-1,-1,30,32,34,-1,-1,-1,-1,-1,-1,-1,-1,-1,-1,-1],"split_conditions":[5.84E1,-1.512E3,6E0,3E-2,5.52E1,6.17E1,1E2,5E0,2.1445783E-2,3.7049945E-2,8.1E1,9.825E1,-4.159857E-2,9.066667E-1,6.9E-2,6.84871E-1,6.947493E-1,2.0364685E-2,-1.6606342E-2,-3.128031E-2,-6.3707787E-3,9.344921E1,1.6E0,2.88E0,3.830648E-2,-3.5833165E-2,2.6551433E-2,-1.9764448E-2,-4.407883E-2,-2.9411117E-2,1.2930283E-2,3.7497513E-2,-9.158581E-3,-1.2703196E-2,3.0786766E-2],"split_indices":[74,92,39,95,74,74,37,39,0,0,100,26,0,5,5,7,7,0,0,0,0,110,73,109,0,0,0,0,0,0,0,0,0,0,0],"split_type":[0,0,0,0,0,0,0,0,0,0,0,0,0,0,0,0,0,0,0,0,0,0,0,0,0,0,0,0,0,0,0,0,0,0,0],"sum_hessian":[2.772166E2,1.11997375E2,1.6521922E2,4.0292885E1,7.170449E1,4.66707E1,1.1854852E2,3.206944E1,8.223446E0,6.0800346E1,1.0904145E1,1.5844964E1,3.0825737E1,8.5058304E1,3.349022E1,1.6343967E1,1.5725471E1,5.439506E0,5.4646397E0,1.0500936E1,5.3440285E0,7.2304955E1,1.27533455E1,1.048652E1,2.30037E1,6.17967E0,1.0164298E1,5.965088E0,9.760383E0,6.3010952E1,9.2940035E0,6.3859167E0,6.3674283E0,5.0266366E0,5.459883E0],"tree_param":{"num_deleted":"0","num_feature":"119","num_nodes":"35","size_leaf_vector":"1"}},{"base_weights":[2.498562E-2,5.819501E-1,-3.8310066E-1,-2.0683089E-1,1.0183306E0,-1.1631047E0,-9.3468025E-2,2.5906272E-2,-4.3776476E-1,3.6232058E-2,1.2770896E-1,-7.1614635E-1,-4.0312704E-2,-5.5489695E-1,9.4843644E-1,1.9284245E-2,-7.1262103E-1,-2.6312891E-2,2.709336E-2,-3.3578567E-2,-7.905389E-3,-8.385903E-1,3.7717572E-1,-3.5031107E-3,1.1328967E0,-3.0672729E-2,1.2040869E-2,-3.0573342E-2,2.4537511E-2,-2.2281671E-2,2.6127586E-2,1.3031912E-2,3.739317E-2],"categories":[],"categories_nodes":[],"categories_segments":[],"categories_sizes":[],"default_left":[0,0,0,0,0,0,0,0,0,0,0,0,0,0,0,0,0,0,0,0,0,0,0,0,0,0,0,0,0,0,0,0,0],"id":26,"left_children":[1,3,5,7,9,11,13,-1,15,-1,17,19,-1,21,23,-1,25,-1,-1,-1,-1,27,29,-1,31,-1,-1,-1,-1,-1,-1,-1,-1],"loss_changes":[6.0791344E1,3.934095E1,3.456154E1,1.0773686E1,1.1979111E1,1.7051277E0,5.5661472E1,0E0,1.1141943E1,0E0,1.2568381E1,2.21657E0,0E0,2.1719955E1,7.2841225E0,0E0,1.0627137E1,0E0,0E0,0E0,0E0,1.981417E1,1.1854069E1,0E0,1.4401054E0,0E0,0E0,0E0,0E0,0E0,0E0,0E0,0E0],"parents":[2147483647,0,0,1,1,2,2,3,3,4,4,5,5,6,6,8,8,10,10,11,11,13,13,14,14,16,16,21,21,22,22,24,24],"right_children":[2,4,6,8,10,12,14,-1,16,-1,18,20,-1,22,24,-1,26,-1,-1,-1,-1,28,30,-1,32,-1,-1,-1,-1,-1,-1,-1,-1],"split_conditions":[5.87E1,-1.512E3,6E0,4.53E1,5.52E1,6.17E1,1E2,2.5906272E-2,1E0,3.6232058E-2,2.28E-1,6.17E0,-4.0312704E-2,1E0,1.9E-1,1.9284245E-2,6E0,-2.6312891E-2,2.709336E-2,-3.3578567E-2,-7.905389E-3,6.67E0,1E2,-3.5031107E-3,1.2E1,-3.0672729E-2,1.2040869E-2,-3.0573342E-2,2.4537511E-2,-2.2281671E-2,2.6127586E-2,1.3031912E-2,3.739317E-2],"split_indices":[74,92,39,74,74,74,37,0,113,0,6,108,0,11,109,0,39,0,0,0,0,108,27,0,72,0,0,0,0,0,0,0,0],"split_type":[0,0,0,0,0,0,0,0,0,0,0,0,0,0,0,0,0,0,0,0,0,0,0,0,0,0,0,0,0,0,0,0,0],"sum_hessian":[2.6440332E2,1.1164031E2,1.52763E2,3.996369E1,7.167662E1,4.0046257E1,1.1271674E2,6.286031E0,3.3677658E1,5.8573643E1,1.3102978E1,1.3829664E1,2.6216593E1,7.867223E1,3.4044514E1,6.3482394E0,2.732942E1,5.5653872E0,7.5375905E0,6.0293927E0,7.8002715E0,6.051202E1,1.816021E1,5.0264516E0,2.9018063E1,2.1549477E1,5.7799435E0,5.5140522E1,5.371499E0,5.263264E0,1.2896946E1,5.192701E0,2.3825363E1],"tree_param":{"num_deleted":"0","num_feature":"119","num_nodes":"33","size_leaf_vector":"1"}},{"base_weights":[1.544064E-2,6.093532E-1,-3.78854E-1,9.192342E-1,-3.4197843E-1,-1.1632663E0,-8.584266E-2,-1.0135665E-2,1.0139211E0,-5.560984E-1,1.3801288E-2,-3.8596924E-2,-4.6949997E-3,-5.3329676E-1,9.875824E-1,1.0759827E0,2.7554445E-3,9.592176E-3,-8.598395E-1,-6.969618E-1,3.263541E-2,3.223493E-1,3.7611745E-2,3.374375E-2,1.1970695E-2,-3.317103E-2,-6.1332737E-3,-2.9570602E-2,8.931638E-3,-1.6251478E-2,3.0991584E-2],"categories":[],"categories_nodes":[],"categories_segments":[],"categories_sizes":[],"default_left":[0,0,0,0,0,0,0,0,0,0,0,0,0,0,0,0,0,0,0,0,0,0,0,0,0,0,0,0,0,0,0],"id":27,"left_children":[1,3,5,7,9,11,13,-1,15,17,-1,-1,-1,19,21,23,-1,-1,25,27,-1,29,-1,-1,-1,-1,-1,-1,-1,-1,-1],"loss_changes":[6.3503185E1,3.244026E1,3.7155712E1,1.0358116E1,5.134819E0,5.0249786E0,5.8514416E1,0E0,4.131691E0,6.470578E0,0E0,0E0,0E0,2.3897549E1,5.582695E0,1.5449753E0,0E0,0E0,2.3094263E0,2.3202908E1,0E0,8.484742E0,0E0,0E0,0E0,0E0,0E0,0E0,0E0,0E0,0E0],"parents":[2147483647,0,0,1,1,2,2,3,3,4,4,5,5,6,6,8,8,9,9,13,13,14,14,15,15,18,18,19,19,21,21],"right_children":[2,4,6,8,10,12,14,-1,16,18,-1,-1,-1,20,22,24,-1,-1,26,28,-1,30,-1,-1,-1,-1,-1,-1,-1,-1,-1],"split_conditions":[5.84E1,1.19362915E2,6E0,2E0,3E-2,7.63E0,1E2,-1.0135665E-2,6.4977806E1,1.18E0,1.3801288E-2,-3.8596924E-2,-4.6949997E-3,6.72E0,6.9E-3,5.62E1,2.7554445E-3,9.592176E-3,2.53E0,1E0,3.263541E-2,2.17744E1,3.7611745E-2,3.374375E-2,1.1970695E-2,-3.317103E-2,-6.1332737E-3,-2.9570602E-2,8.931638E-3,-1.6251478E-2,3.0991584E-2],"split_indices":[74,110,39,39,95,108,37,0,84,109,0,0,0,108,6,74,0,0,109,11,0,76,0,0,0,0,0,0,0,0,0],"split_type":[0,0,0,0,0,0,0,0,0,0,0,0,0,0,0,0,0,0,0,0,0,0,0,0,0,0,0,0,0,0,0],"sum_hessian":[2.680994E2,1.0674641E2,1.6135298E2,8.0636185E1,2.6110222E1,4.257645E1,1.18776535E2,5.304456E0,7.533173E1,2.1069746E1,5.0404744E0,3.747118E1,5.1052732E0,8.4430046E1,3.4346485E1,7.024496E1,5.0867715E0,5.320333E0,1.57494135E1,7.752064E1,6.9094095E0,1.0869727E1,2.3476759E1,6.445752E1,5.7874384E0,1.059259E1,5.156823E0,6.0169453E1,1.7351183E1,5.0030417E0,5.866685E0],"tree_param":{"num_deleted":"0","num_feature":"119","num_nodes":"31","size_leaf_vector":"1"}},{"base_weights":[2.0143786E-2,5.826158E-1,-3.960442E-1,-2.6374662E-1,1.0343937E0,-5.0738484E-1,3.2315433E-2,-7.5790936E-1,3.0760267E-1,-4.301617E-3,1.1453195E0,-5.930915E-1,3.2002952E-2,-1.1230577E0,5.602689E-3,3.5183836E-2,-3.9613888E-1,3.5919454E-2,1.3747111E-2,-7.45534E-1,1.9442433E-1,-1.8724306E-2,-4.045612E-2,3.1278743E-3,-2.4249187E-2,-2.6424112E-2,7.895449E-3,-3.6348995E-2,3.2733306E-2],"categories":[],"categories_nodes":[],"categories_segments":[],"categories_sizes":[],"default_left":[0,0,0,0,0,0,0,0,0,0,0,0,0,0,0,0,0,0,0,0,0,0,0,0,0,0,0,0,0],"id":28,"left_children":[1,3,5,7,9,11,-1,13,15,-1,17,19,-1,21,-1,-1,23,-1,-1,25,27,-1,-1,-1,-1,-1,-1,-1,-1],"loss_changes":[6.0903904E1,4.280929E1,2.5272776E1,1.1586472E1,9.824554E0,1.9790741E1,0E0,7.9218836E0,1.2560481E1,0E0,1.3889008E0,1.6335602E1,0E0,3.401394E-1,0E0,0E0,2.6165316E0,0E0,0E0,1.5762508E1,3.0696096E1,0E0,0E0,0E0,0E0,0E0,0E0,0E0,0E0],"parents":[2147483647,0,0,1,1,2,2,3,3,4,4,5,5,7,7,8,8,10,10,11,11,13,13,16,16,19,19,20,20],"right_children":[2,4,6,8,10,12,-1,14,16,-1,18,20,-1,22,-1,-1,24,-1,-1,26,28,-1,-1,-1,-1,-1,-1,-1,-1],"split_conditions":[5.87E1,-1.512E3,3.2E0,6.98E-1,1.0233334E1,7.763333E1,3.2315433E-2,3E-2,1.9825E2,-4.301617E-3,5.92E2,6.67E0,3.2002952E-2,2.18E1,5.602689E-3,3.5183836E-2,3.3069E1,3.5919454E-2,1.3747111E-2,7.43E1,9.828E1,-1.8724306E-2,-4.045612E-2,3.1278743E-3,-2.4249187E-2,-2.6424112E-2,7.895449E-3,-3.6348995E-2,3.2733306E-2],"split_indices":[74,92,109,6,61,61,0,95,71,0,71,108,0,24,0,0,76,0,0,74,26,0,0,0,0,0,0,0,0],"split_type":[0,0,0,0,0,0,0,0,0,0,0,0,0,0,0,0,0,0,0,0,0,0,0,0,0,0,0,0,0],"sum_hessian":[2.571103E2,1.09186615E2,1.4792366E2,3.813929E1,7.1047325E1,1.3850711E2,9.416554E0,2.0282282E1,1.7857008E1,6.0000315E0,6.5047295E1,1.3230212E2,6.2049904E0,1.4500065E1,5.7822175E0,7.625014E0,1.0231994E1,5.9300224E1,5.7470675E0,1.1101873E2,2.1283386E1,6.410745E0,8.089319E0,5.01787E0,5.214124E0,9.814654E1,1.2872197E1,8.039146E0,1.324424E1],"tree_param":{"num_deleted":"0","num_feature":"119","num_nodes":"29","size_leaf_vector":"1"}},{"base_weights":[-3.975243E-2,5.11221E-1,-4.3385327E-1,9.794126E-1,-1.9896975E-1,-1.1836452E0,-1.5519851E-1,-1.3740692E-2,3.5256583E-2,8.2217926E-1,-6.9235766E-1,-1.6869E-2,-3.7283175E-2,-5.745274E-1,9.420223E-1,7.4824844E-3,3.3114213E-2,-9.665886E-1,-0E0,-7.3465663E-1,3.1661678E-2,7.130303E-3,3.7074126E-2,-8.6829625E-3,-3.4289297E-2,-3.1651743E-2,7.7769565E-3],"categories":[],"categories_nodes":[],"categories_segments":[],"categories_sizes":[],"default_left":[0,0,0,0,0,0,0,0,0,0,0,0,0,0,0,0,0,0,0,0,0,0,0,0,0,0,0],"id":29,"left_children":[1,3,5,7,9,11,13,-1,-1,15,17,-1,-1,19,21,-1,-1,23,-1,25,-1,-1,-1,-1,-1,-1,-1],"loss_changes":[5.7736813E1,3.722509E1,3.1988108E1,1.9776108E1,2.361382E1,3.0290604E-1,5.3627197E1,0E0,0E0,1.926878E0,6.014699E0,0E0,0E0,2.3082706E1,6.0883865E0,0E0,0E0,2.051031E0,0E0,2.5176739E1,0E0,0E0,0E0,0E0,0E0,0E0,0E0],"parents":[2147483647,0,0,1,1,2,2,3,3,4,4,5,5,6,6,9,9,10,10,13,13,14,14,17,17,19,19],"right_children":[2,4,6,8,10,12,14,-1,-1,16,18,-1,-1,20,22,-1,-1,24,-1,26,-1,-1,-1,-1,-1,-1,-1],"split_conditions":[5.87E1,1E0,6E0,2E0,4.54E1,9.545E1,1E2,-1.3740692E-2,3.5256583E-2,4.625299E-2,6E0,-1.6869E-2,-3.7283175E-2,2.9346E1,6.9E-2,7.4824844E-3,3.3114213E-2,5.412832E1,-0E0,1E0,3.1661678E-2,7.130303E-3,3.7074126E-2,-8.6829625E-3,-3.4289297E-2,-3.1651743E-2,7.7769565E-3],"split_indices":[74,113,39,39,74,26,37,0,0,8,39,0,0,76,5,0,0,10,0,11,0,0,0,0,0,0,0],"split_type":[0,0,0,0,0,0,0,0,0,0,0,0,0,0,0,0,0,0,0,0,0,0,0,0,0,0,0],"sum_hessian":[2.629013E2,1.093395E2,1.5356181E2,6.563919E1,4.3700306E1,4.0189972E1,1.1337184E2,7.567326E0,5.807187E1,1.3844506E1,2.9855799E1,5.008966E0,3.5181004E1,8.260724E1,3.07646E1,5.612846E0,8.231661E0,2.1025457E1,8.830342E0,7.602364E1,6.5835977E0,9.953908E0,2.0810694E1,5.2807665E0,1.5744691E1,5.7496647E1,1.8526997E1],"tree_param":{"num_deleted":"0","num_feature":"119","num_nodes":"27","size_leaf_vector":"1"}},{"base_weights":[2.4935003E-2,5.779541E-1,-3.502058E-1,-2.3202431E-1,1.0326711E0,-1.1471926E0,-3.4107972E-2,1.914909E-2,-4.940505E-1,-5.5452776E-3,1.1395824E0,-1.5758786E-2,-1.2147795E0,3.4452144E-2,-2.3554745E-1,2.9250795E-2,-3.531655E-2,3.5305742E-2,1.6944317E-2,-1.8622082E-2,-3.8461264E-2,-4.288643E-1,3.3404894E-2,-1.7306194E-2,2.7057387E-2,-1.9782092E-2,1.8940592E-2],"categories":[],"categories_nodes":[],"categories_segments":[],"categories_sizes":[],"default_left":[0,0,0,0,0,0,0,0,0,0,0,0,0,0,0,0,0,0,0,0,0,0,0,0,0,0,0],"id":30,"left_children":[1,3,5,7,9,11,13,-1,15,-1,17,-1,19,-1,21,23,-1,-1,-1,-1,-1,25,-1,-1,-1,-1,-1],"loss_changes":[5.3975384E1,3.9183407E1,3.8847908E1,9.345138E0,9.227043E0,7.1214676E-1,2.7124607E1,0E0,1.1207724E1,0E0,1.6877747E-1,0E0,1.4508057E-1,0E0,2.6071392E1,1.0793635E1,0E0,0E0,0E0,0E0,0E0,2.1748852E1,0E0,0E0,0E0,0E0,0E0],"parents":[2147483647,0,0,1,1,2,2,3,3,4,4,5,5,6,6,8,8,10,10,12,12,14,14,15,15,21,21],"right_children":[2,4,6,8,10,12,14,-1,16,-1,18,-1,20,-1,22,24,-1,-1,-1,-1,-1,26,-1,-1,-1,-1,-1],"split_conditions":[5.84E1,-1.512E3,6E0,4.54E1,2.725E1,-1.5E3,1.1E1,1.914909E-2,1.1820689E1,-5.5452776E-3,5.58E1,-1.5758786E-2,9.5E1,3.4452144E-2,2.9346E1,7E-1,-3.531655E-2,3.5305742E-2,1.6944317E-2,-1.8622082E-2,-3.8461264E-2,9.113333E-1,3.3404894E-2,-1.7306194E-2,2.7057387E-2,-1.9782092E-2,1.8940592E-2],"split_indices":[74,92,39,74,71,92,39,0,62,0,74,0,26,0,76,6,0,0,0,0,0,5,0,0,0,0,0],"split_type":[0,0,0,0,0,0,0,0,0,0,0,0,0,0,0,0,0,0,0,0,0,0,0,0,0,0,0],"sum_hessian":[2.570992E2,1.0369355E2,1.5340567E2,3.7467724E1,6.622582E1,4.2354877E1,1.110508E2,8.0832615E0,2.938446E1,5.1821723E0,6.104365E1,5.5866995E0,3.6768177E1,1.5065236E1,9.5985565E1,1.7369192E1,1.2015268E1,5.5686935E1,5.3567195E0,5.45152E0,3.1316658E1,8.491464E1,1.1070923E1,1.0482327E1,6.8868647E0,7.029151E1,1.4623129E1],"tree_param":{"num_deleted":"0","num_feature":"119","num_nodes":"27","size_leaf_vector":"1"}},{"base_weights":[1.8383384E-2,5.230533E-1,-3.4491196E-1,-2.1984601E-1,9.357677E-1,-5.1730424E-1,5.4905146E-1,-7.562056E-1,3.583799E-1,3.500878E-2,-9.30105E-3,-6.917401E-1,5.8434486E-1,-1.9979026E-2,3.4249656E-2,-3.9845422E-2,3.208721E-3,3.736417E-2,-4.107695E-1,-2.9396003E-2,1.8522862E-2,-1.4503117E-1,-9.467095E-1,-1.1134177E-2,3.0264659E-2,-2.4909252E-2,2.484573E-3,2.1183275E-2,-2.145752E-2,2.3517644E-3,-3.27011E-2],"categories":[],"categories_nodes":[],"categories_segments":[],"categories_sizes":[],"default_left":[0,0,0,0,0,0,0,0,0,0,0,0,0,0,0,0,0,0,0,0,0,0,0,0,0,0,0,0,0,0,0],"id":31,"left_children":[1,3,5,7,9,11,13,15,17,-1,19,21,23,-1,-1,-1,-1,-1,25,-1,-1,27,29,-1,-1,-1,-1,-1,-1,-1,-1],"loss_changes":[4.7121975E1,3.3379616E1,2.3433718E1,1.2717297E1,1.5330799E1,2.4837742E1,1.9024788E1,1.0751616E1,1.4475221E1,0E0,1.0113845E1,1.4959091E1,7.911204E0,0E0,0E0,0E0,0E0,0E0,2.6136947E0,0E0,0E0,1.8592712E1,1.115023E1,0E0,0E0,0E0,0E0,0E0,0E0,0E0,0E0],"parents":[2147483647,0,0,1,1,2,2,3,3,4,4,5,5,6,6,7,7,8,8,10,10,11,11,12,12,18,18,21,21,22,22],"right_children":[2,4,6,8,10,12,14,16,18,-1,20,22,24,-1,-1,-1,-1,-1,26,-1,-1,28,30,-1,-1,-1,-1,-1,-1,-1,-1],"split_conditions":[5.9E1,-1.512E3,7.43E1,6.9575214E-1,5.52E1,6.67E0,9.4E-1,8.15E1,1.96E2,3.500878E-2,4.17E1,3.78E0,6.16E1,-1.9979026E-2,3.4249656E-2,-3.9845422E-2,3.208721E-3,3.736417E-2,2.24E0,-2.9396003E-2,1.8522862E-2,2.27E1,6.13E1,-1.1134177E-2,3.0264659E-2,-2.4909252E-2,2.484573E-3,2.1183275E-2,-2.145752E-2,2.3517644E-3,-3.27011E-2],"split_indices":[74,92,74,6,74,108,109,71,71,0,38,108,74,0,0,0,0,0,109,0,0,1,74,0,0,0,0,0,0,0,0],"split_type":[0,0,0,0,0,0,0,0,0,0,0,0,0,0,0,0,0,0,0,0,0,0,0,0,0,0,0,0,0,0,0],"sum_hessian":[2.5394055E2,1.06128426E2,1.4781213E2,3.8066387E1,6.806204E1,1.245397E2,2.3272425E1,1.9598318E1,1.8468067E1,5.4486637E1,1.3575404E1,1.0807581E2,1.646389E1,7.5133376E0,1.5759088E1,1.1371041E1,8.227276E0,8.205455E0,1.0262612E1,5.057552E0,8.517853E0,3.524609E1,7.282972E1,5.049817E0,1.1414074E1,5.1038094E0,5.1588035E0,1.3926223E1,2.1319868E1,8.931554E0,6.3898167E1],"tree_param":{"num_deleted":"0","num_feature":"119","num_nodes":"31","size_leaf_vector":"1"}},{"base_weights":[-1.6044676E-2,-1.9518277E-1,8.1546396E-1,2.810291E-1,-3.840315E-1,9.739532E-1,-4.650811E-3,-5.1668227E-1,6.237861E-1,-5.5741763E-1,-3.8787571E-3,1.0690532E-2,3.3568032E-2,6.878718E-4,-8.202876E-1,9.2093503E-1,-1.3969795E-2,-6.674146E-1,1.9639885E-2,-5.7449967E-1,3.6486724E-1,-3.3087343E-2,-1.0037271E-2,3.6466382E-2,-6.2974757E-3,-8.539692E-3,-2.7517952E-2,3.3281922E-2,-2.2882687E-2,2.2660142E-3,-2.9608201E-2,1.9749481E-2,-1.316443E-2],"categories":[],"categories_nodes":[],"categories_segments":[],"categories_sizes":[],"default_left":[0,0,0,0,0,0,0,0,0,0,0,0,0,0,0,0,0,0,0,0,0,0,0,0,0,0,0,0,0,0,0,0,0],"id":32,"left_children":[1,3,5,7,9,11,-1,13,15,17,19,-1,-1,-1,21,23,-1,25,27,29,31,-1,-1,-1,-1,-1,-1,-1,-1,-1,-1,-1,-1],"loss_changes":[3.7955154E1,1.9055899E1,7.25235E0,1.6992516E1,9.902563E0,2.7556458E0,0E0,3.1989899E0,1.4600327E1,6.6607246E0,1.0652453E1,0E0,0E0,0E0,9.8208237E-1,1.1923946E1,0E0,7.827896E0,1.6564762E1,5.5479493E0,7.6709285E0,0E0,0E0,0E0,0E0,0E0,0E0,0E0,0E0,0E0,0E0,0E0,0E0],"parents":[2147483647,0,0,1,1,2,2,3,3,4,4,5,5,7,7,8,8,9,9,10,10,14,14,15,15,17,17,18,18,19,19,20,20],"right_children":[2,4,6,8,10,12,-1,14,16,18,20,-1,-1,-1,22,24,-1,26,28,30,32,-1,-1,-1,-1,-1,-1,-1,-1,-1,-1,-1,-1],"split_conditions":[7.043651E-1,2E0,4.0525E2,1.4590556E1,5.992063E-1,-1.32E3,-4.650811E-3,3.6E-1,6.45E2,8.973E1,9.828E1,1.0690532E-2,3.3568032E-2,6.878718E-4,6.26E0,4E0,-1.3969795E-2,1.3633333E1,5.22E0,7.57E0,6.7261904E-1,-3.3087343E-2,-1.0037271E-2,3.6466382E-2,-6.2974757E-3,-8.539692E-3,-2.7517952E-2,3.3281922E-2,-2.2882687E-2,2.2660142E-3,-2.9608201E-2,1.9749481E-2,-1.316443E-2],"split_indices":[23,22,71,115,23,92,0,112,71,69,26,0,0,0,108,78,0,61,108,108,23,0,0,0,0,0,0,0,0,0,0,0,0],"split_type":[0,0,0,0,0,0,0,0,0,0,0,0,0,0,0,0,0,0,0,0,0,0,0,0,0,0,0,0,0,0,0,0,0],"sum_hessian":[2.5212338E2,2.0847765E2,4.364573E1,5.884045E1,1.4963719E2,3.76026E1,6.043128E0,1.7367502E1,4.147295E1,1.0210501E2,4.7532185E1,8.2662E0,2.9336401E1,6.633978E0,1.0733524E1,3.2839657E1,8.633292E0,8.5706345E1,1.6398666E1,1.8436537E1,2.9095648E1,5.4502225E0,5.2833023E0,2.6033464E1,6.8061924E0,3.5275414E1,5.043093E1,6.644621E0,9.7540455E0,7.53838E0,1.0898155E1,2.1603342E1,7.4923058E0],"tree_param":{"num_deleted":"0","num_feature":"119","num_nodes":"33","size_leaf_vector":"1"}},{"base_weights":[-2.7148472E-3,5.2491003E-1,-3.021192E-1,-3.7022775E-1,3.460909E-2,-1.0122396E0,-2.7726814E-2,2.1567175E-2,-6.975322E-1,-1.1603075E0,3.5876944E-3,-3.7404227E-1,8.565985E-1,-7.528157E-2,-3.5981756E-2,-1.2381108E-2,-3.7462257E-2,-6.0944325E-1,3.2934703E-2,-4.0332796E-3,3.7523765E-2,2.5671462E-2,-2.5508104E-2,2.2846754E-4,-3.0177873E-2],"categories":[],"categories_nodes":[],"categories_segments":[],"categories_sizes":[],"default_left":[0,0,0,0,0,0,0,0,0,0,0,0,0,0,0,0,0,0,0,0,0,0,0,0,0],"id":33,"left_children":[1,3,5,7,-1,9,11,-1,13,15,-1,17,19,21,-1,-1,-1,23,-1,-1,-1,-1,-1,-1,-1],"loss_changes":[4.031964E1,5.268351E1,3.162124E1,1.4711588E1,0E0,7.9031067E0,3.694978E1,0E0,9.401295E0,1.7234421E0,0E0,3.103215E1,1.3618889E1,1.2278397E1,0E0,0E0,0E0,1.8671488E1,0E0,0E0,0E0,0E0,0E0,0E0,0E0],"parents":[2147483647,0,0,1,1,2,2,3,3,5,5,6,6,8,8,9,9,11,11,12,12,13,13,17,17],"right_children":[2,4,6,8,-1,10,12,-1,14,16,-1,18,20,22,-1,-1,-1,24,-1,-1,-1,-1,-1,-1,-1],"split_conditions":[5.52E1,-1.512E3,6E0,4.54E1,3.460909E-2,7.72E0,1.4367608E0,2.1567175E-2,7.6876526E0,-7.878788E-2,3.5876944E-3,6.72E0,3.32E0,3.64E1,-3.5981756E-2,-1.2381108E-2,-3.7462257E-2,3.78E0,3.2934703E-2,-4.0332796E-3,3.7523765E-2,2.5671462E-2,-2.5508104E-2,2.2846754E-4,-3.0177873E-2],"split_indices":[74,92,39,74,0,108,111,0,62,91,0,108,108,24,0,0,0,108,0,0,0,0,0,0,0],"split_type":[0,0,0,0,0,0,0,0,0,0,0,0,0,0,0,0,0,0,0,0,0,0,0,0,0],"sum_hessian":[2.5236613E2,9.083265E1,1.615335E2,3.7665184E1,5.316747E1,4.379505E1,1.17738434E2,8.218205E0,2.9446978E1,3.8773273E1,5.0217786E0,8.5308815E1,3.2429623E1,1.4005711E1,1.5441267E1,5.1201005E0,3.365317E1,7.436258E1,1.0946236E1,9.437517E0,2.2992105E1,6.2328634E0,7.7728467E0,2.9566547E1,4.4796032E1],"tree_param":{"num_deleted":"0","num_feature":"119","num_nodes":"25","size_leaf_vector":"1"}},{"base_weights":[1.8240683E-2,5.2649236E-1,-3.2336017E-1,1.0085515E0,-1.5103261E-1,-1.0702353E0,-5.793564E-2,-7.2450964E-3,3.470504E-2,7.788345E-1,-6.134422E-1,-6.1172765E-1,-3.5998378E-2,3.324085E-2,-2.387068E-1,4.749267E-3,3.252018E-2,-8.500448E-1,5.5688825E-3,-2.9870758E-2,-1.9588657E-3,-4.1139013E-1,3.2226518E-2,-1.0755989E-2,-2.9813943E-2,-1.684568E-2,2.8457591E-2],"categories":[],"categories_nodes":[],"categories_segments":[],"categories_sizes":[],"default_left":[0,0,0,0,0,0,0,0,0,0,0,0,0,0,0,0,0,0,0,0,0,0,0,0,0,0,0],"id":34,"left_children":[1,3,5,7,9,11,13,-1,-1,15,17,19,-1,-1,21,-1,-1,23,-1,-1,-1,25,-1,-1,-1,-1,-1],"loss_changes":[4.2773293E1,3.2673294E1,2.8974644E1,1.1293163E1,1.8933895E1,1.0021858E0,2.3555443E1,0E0,0E0,2.3969765E0,5.8299828E0,2.2511783E0,0E0,0E0,2.2541351E1,0E0,0E0,9.497509E-1,0E0,0E0,0E0,1.8461031E1,0E0,0E0,0E0,0E0,0E0],"parents":[2147483647,0,0,1,1,2,2,3,3,4,4,5,5,6,6,9,9,10,10,11,11,14,14,17,17,21,21],"right_children":[2,4,6,8,10,12,14,-1,-1,16,18,20,-1,-1,22,-1,-1,24,-1,-1,-1,26,-1,-1,-1,-1,-1],"split_conditions":[5.84E1,1E0,6E0,2E0,4.54E1,1.2166667E1,1.1E1,-7.2450964E-3,3.470504E-2,4.625299E-2,3E-2,2.68494E1,-3.5998378E-2,3.324085E-2,2.9346E1,4.749267E-3,3.252018E-2,1.19362915E2,5.5688825E-3,-2.9870758E-2,-1.9588657E-3,7.763333E1,3.2226518E-2,-1.0755989E-2,-2.9813943E-2,-1.684568E-2,2.8457591E-2],"split_indices":[74,113,39,39,74,61,39,0,0,8,95,76,0,0,76,0,0,110,0,0,0,61,0,0,0,0,0],"split_type":[0,0,0,0,0,0,0,0,0,0,0,0,0,0,0,0,0,0,0,0,0,0,0,0,0,0,0],"sum_hessian":[2.4327483E2,9.75764E1,1.4569843E2,5.667024E1,4.0906162E1,3.691073E1,1.087877E2,5.8379416E0,5.0832294E1,1.3173218E1,2.7732944E1,1.0200078E1,2.6710651E1,1.3495445E1,9.529225E1,5.201821E0,7.971397E0,2.1420008E1,6.3129373E0,5.158834E0,5.041244E0,8.51933E1,1.0098954E1,6.190528E0,1.5229479E1,7.758285E1,7.6104493E0],"tree_param":{"num_deleted":"0","num_feature":"119","num_nodes":"27","size_leaf_vector":"1"}},{"base_weights":[1.3457675E-3,-5.454279E-1,3.0132103E-1,7.0621866E-1,-7.761081E-1,6.5561736E-1,-3.480091E-1,3.047033E-3,3.20942E-2,3.479239E-1,-9.914706E-1,4.9665425E-2,1.1075082E0,2.2829717E-1,-8.274753E-1,-7.923457E-3,2.7679836E-2,-4.4090524E-3,-1.0587803E0,-3.0441833E-1,3.2108516E-2,-5.5434825E-3,3.6941852E-2,-7.070377E-1,3.28305E-2,-1.1198889E0,1.686731E-2,-3.435453E-2,-6.5543195E-3,-2.1051181E-2,3.9581448E-2,-0E0,-3.318658E-2,-1.1624291E-2,-3.850311E-2],"categories":[],"categories_nodes":[],"categories_segments":[],"categories_sizes":[],"default_left":[0,0,0,0,0,0,0,0,0,0,0,0,0,0,0,0,0,0,0,0,0,0,0,0,0,0,0,0,0,0,0,0,0,0,0],"id":35,"left_children":[1,3,5,7,9,11,13,-1,-1,15,17,19,21,23,25,-1,-1,-1,27,29,-1,-1,-1,31,-1,33,-1,-1,-1,-1,-1,-1,-1,-1,-1],"loss_changes":[4.1122887E1,2.645627E1,3.7666943E1,2.914309E0,1.8913506E1,2.8690601E1,1.6399426E1,0E0,0E0,5.078869E0,3.2848625E0,1.745396E1,1.0094795E1,2.3451082E1,1.406008E1,0E0,0E0,0E0,3.765976E0,2.441641E1,0E0,0E0,0E0,4.0393014E0,0E0,2.3345337E0,0E0,0E0,0E0,0E0,0E0,0E0,0E0,0E0,0E0],"parents":[2147483647,0,0,1,1,2,2,3,3,4,4,5,5,6,6,9,9,10,10,11,11,12,12,13,13,14,14,18,18,19,19,23,23,25,25],"right_children":[2,4,6,8,10,12,14,-1,-1,16,18,20,22,24,26,-1,-1,-1,28,30,-1,-1,-1,32,-1,34,-1,-1,-1,-1,-1,-1,-1,-1,-1],"split_conditions":[6E0,4.54E1,2.965E2,7.0548487E-1,9.7E-1,9.5E-1,3.6E-1,3.047033E-3,3.20942E-2,3.43298E1,2.3638E0,6.72E0,5E-2,3.905E2,3.02E0,-7.923457E-3,2.7679836E-2,-4.4090524E-3,8.4E1,2E1,3.2108516E-2,-5.5434825E-3,3.6941852E-2,1.7106096E1,3.28305E-2,1.1450565E0,1.686731E-2,-3.435453E-2,-6.5543195E-3,-2.1051181E-2,3.9581448E-2,-0E0,-3.318658E-2,-1.1624291E-2,-3.850311E-2],"split_indices":[39,74,71,6,109,109,112,0,0,76,63,108,13,71,109,0,0,0,100,39,0,0,0,62,0,9,0,0,0,0,0,0,0,0,0],"split_type":[0,0,0,0,0,0,0,0,0,0,0,0,0,0,0,0,0,0,0,0,0,0,0,0,0,0,0,0,0,0,0,0,0,0,0],"sum_hessian":[2.478667E2,8.7258095E1,1.6060861E2,1.3030461E1,7.422763E1,1.0400142E2,5.6607185E1,5.7170334E0,7.313428E0,1.1712011E1,6.2515617E1,4.5233208E1,5.8768215E1,2.5969597E1,3.0637589E1,5.9802866E0,5.7317247E0,5.0770626E0,5.7438557E1,3.429117E1,1.0942039E1,5.0059185E0,5.37623E1,1.2562296E1,1.3407301E1,2.5611767E1,5.0258236E0,5.1483616E1,5.954938E0,2.8284344E1,6.0068245E0,5.0168743E0,7.5454216E0,5.7092843E0,1.9902481E1],"tree_param":{"num_deleted":"0","num_feature":"119","num_nodes":"35","size_leaf_vector":"1"}},{"base_weights":[2.201442E-3,5.71885E-1,-3.052483E-1,-2.7044082E-1,3.3983633E-2,-3.9746732E-1,3.1351205E-2,2.1198647E-2,-5.4904073E-1,-1.5632133E-1,-7.6213545E-1,-4.8084413E-3,-1.0501378E0,-3.3668718E-1,3.4368247E-2,-3.983503E-1,-1.097178E0,-2.2656808E-2,2.838904E-2,-1.6479926E-2,-3.77767E-2,-1.7954571E-2,6.013533E-3,-2.5729584E-2,7.6633864E-3,-3.7289266E-2,-8.445842E-3],"categories":[],"categories_nodes":[],"categories_segments":[],"categories_sizes":[],"default_left":[0,0,0,0,0,0,0,0,0,0,0,0,0,0,0,0,0,0,0,0,0,0,0,0,0,0,0],"id":36,"left_children":[1,3,5,7,-1,9,-1,-1,11,13,15,17,19,21,-1,23,25,-1,-1,-1,-1,-1,-1,-1,-1,-1,-1],"loss_changes":[4.248016E1,4.073909E1,2.0147896E1,1.0132951E1,0E0,1.278096E1,0E0,0E0,7.5967665E0,2.1958483E1,6.3281555E0,1.1869267E1,3.1202888E-1,1.1680088E1,0E0,9.564926E0,2.8270073E0,0E0,0E0,0E0,0E0,0E0,0E0,0E0,0E0,0E0,0E0],"parents":[2147483647,0,0,1,1,2,2,3,3,5,5,8,8,9,9,10,10,11,11,12,12,13,13,15,15,16,16],"right_children":[2,4,6,8,-1,10,-1,-1,12,14,16,18,20,22,-1,24,26,-1,-1,-1,-1,-1,-1,-1,-1,-1,-1],"split_conditions":[5.52E1,-1.512E3,3.2E0,4.54E1,3.3983633E-2,2.965E2,3.1351205E-2,2.1198647E-2,7.6876526E0,4.284E1,4E1,3.7E-1,1.1795125E1,1E2,3.4368247E-2,4.1225E2,1.49025E2,-2.2656808E-2,2.838904E-2,-1.6479926E-2,-3.77767E-2,-1.7954571E-2,6.013533E-3,-2.5729584E-2,7.6633864E-3,-3.7289266E-2,-8.445842E-3],"split_indices":[74,92,109,74,0,71,0,0,62,69,18,112,63,37,0,71,68,0,0,0,0,0,0,0,0,0,0],"split_type":[0,0,0,0,0,0,0,0,0,0,0,0,0,0,0,0,0,0,0,0,0,0,0,0,0,0,0],"sum_hessian":[2.3938992E2,8.357192E1,1.5581801E2,3.364485E1,4.9927074E1,1.4691673E2,8.901274E0,6.8739977E0,2.6770853E1,8.989116E1,5.7025574E1,1.3654695E1,1.31161585E1,7.999743E1,9.89373E0,2.9057352E1,2.796822E1,7.8640704E0,5.790624E0,5.606518E0,7.50964E0,5.3793568E1,2.6203863E1,1.6882425E1,1.2174927E1,2.295631E1,5.011909E0],"tree_param":{"num_deleted":"0","num_feature":"119","num_nodes":"27","size_leaf_vector":"1"}},{"base_weights":[8.110787E-3,-5.0244606E-1,2.868253E-1,7.5550705E-1,-7.466175E-1,-1.5281433E-1,1.0211364E0,8.632699E-3,2.891965E-2,7.2426304E-2,-1.071959E0,8.120044E-1,-4.4012302E-1,4.4016695E-1,3.4781184E-2,5.209108E-1,-2.1439273E-2,-3.7401043E-2,-0E0,3.247836E-2,-8.089472E-4,-7.3694384E-1,4.2220578E-1,-7.3739015E-3,2.7286991E-2,5.18936E-4,3.194232E-2,-2.735061E-2,2.2806218E-2,3.3409752E-2,-5.861979E-3],"categories":[],"categories_nodes":[],"categories_segments":[],"categories_sizes":[],"default_left":[0,0,0,0,0,0,0,0,0,0,0,0,0,0,0,0,0,0,0,0,0,0,0,0,0,0,0,0,0,0,0],"id":37,"left_children":[1,3,5,7,9,11,13,-1,-1,15,17,19,21,23,-1,25,-1,-1,-1,-1,-1,27,29,-1,-1,-1,-1,-1,-1,-1,-1],"loss_changes":[3.4212482E1,2.6903353E1,5.0592785E1,8.697367E-1,1.936686E1,2.7837523E1,3.7806015E0,0E0,0E0,8.216216E0,9.605732E0,5.3886204E0,2.0218826E1,4.851618E0,0E0,3.9184685E0,0E0,0E0,0E0,0E0,0E0,1.6215487E1,9.213879E0,0E0,0E0,0E0,0E0,0E0,0E0,0E0,0E0],"parents":[2147483647,0,0,1,1,2,2,3,3,4,4,5,5,6,6,9,9,10,10,11,11,12,12,13,13,15,15,21,21,22,22],"right_children":[2,4,6,8,10,12,14,-1,-1,16,18,20,22,24,-1,26,-1,-1,-1,-1,-1,28,30,-1,-1,-1,-1,-1,-1,-1,-1],"split_conditions":[6E0,4.54E1,1E2,4.625299E-2,1.23E0,5.79E1,3.86E0,8.632699E-3,2.891965E-2,5.9E1,1.1139E2,7.265E1,1E0,1.4342858E0,3.4781184E-2,6.001984E-1,-2.1439273E-2,-3.7401043E-2,-0E0,3.247836E-2,-8.089472E-4,6.67E0,2.3760008E1,-7.3739015E-3,2.7286991E-2,5.18936E-4,3.194232E-2,-2.735061E-2,2.2806218E-2,3.3409752E-2,-5.861979E-3],"split_indices":[39,74,37,8,109,74,108,0,0,74,69,69,11,73,0,23,0,0,0,0,0,108,63,0,0,0,0,0,0,0,0],"split_type":[0,0,0,0,0,0,0,0,0,0,0,0,0,0,0,0,0,0,0,0,0,0,0,0,0,0,0,0,0,0,0],"sum_hessian":[2.3755812E2,8.333674E1,1.5422139E2,1.2969261E1,7.036748E1,9.712394E1,5.709745E1,5.247026E0,7.722235E0,2.024915E1,5.0118324E1,2.1577284E1,7.554665E1,1.2319915E1,4.4777534E1,1.3303118E1,6.9460325E0,4.2842606E1,7.2757163E0,1.6075693E1,5.5015917E0,5.6450123E1,1.9096535E1,5.2090683E0,7.1108465E0,7.806009E0,5.497109E0,5.1135147E1,5.314976E0,8.517605E0,1.057893E1],"tree_param":{"num_deleted":"0","num_feature":"119","num_nodes":"31","size_leaf_vector":"1"}},{"base_weights":[3.4059596E-4,-5.380142E-1,2.9233754E-1,6.428717E-1,-7.7452564E-1,6.379898E-1,-3.350002E-1,1.7523979E-3,2.7807193E-2,3.116194E-1,-9.8847103E-1,8.710625E-2,1.0655252E0,2.2419599E-1,-7.9824436E-1,-6.690599E-3,2.5327548E-2,-1.1126691E0,-2.4312187E-3,-2.2987758E-1,3.1414595E-2,-8.474541E-3,3.626248E-2,-7.3213524E-1,3.3953067E-2,-1.087311E0,1.4868936E-2,-3.5723235E-2,-9.91118E-3,-1.822396E-2,3.963014E-2,-2.4072023E-3,-3.3009913E-2,-1.2609294E-2,-3.650786E-2],"categories":[],"categories_nodes":[],"categories_segments":[],"categories_sizes":[],"default_left":[0,0,0,0,0,0,0,0,0,0,0,0,0,0,0,0,0,0,0,0,0,0,0,0,0,0,0,0,0,0,0,0,0,0,0],"id":38,"left_children":[1,3,5,7,9,11,13,-1,-1,15,17,19,21,23,25,-1,-1,27,-1,29,-1,-1,-1,31,-1,33,-1,-1,-1,-1,-1,-1,-1,-1,-1],"loss_changes":[3.740065E1,2.4109156E1,3.3847454E1,2.2603822E0,1.6889389E1,2.3348995E1,1.4769594E1,0E0,0E0,3.9465568E0,6.4232254E0,1.4297675E1,1.145332E1,2.4140827E1,1.2432835E1,0E0,0E0,2.4292374E0,0E0,2.184967E1,0E0,0E0,0E0,3.0331936E0,0E0,1.3002796E0,0E0,0E0,0E0,0E0,0E0,0E0,0E0,0E0,0E0],"parents":[2147483647,0,0,1,1,2,2,3,3,4,4,5,5,6,6,9,9,10,10,11,11,12,12,13,13,14,14,17,17,19,19,23,23,25,25],"right_children":[2,4,6,8,10,12,14,-1,-1,16,18,20,22,24,26,-1,-1,28,-1,30,-1,-1,-1,32,-1,34,-1,-1,-1,-1,-1,-1,-1,-1,-1],"split_conditions":[6E0,4.54E1,2.965E2,2.33E0,9.7E-1,9.5E-1,3.6E-1,1.7523979E-3,2.7807193E-2,3.43298E1,1.3016E2,6.72E0,8.2E-2,3.905E2,3.03E0,-6.690599E-3,2.5327548E-2,3.81064E1,-2.4312187E-3,2E1,3.1414595E-2,-8.474541E-3,3.626248E-2,5.1725E1,3.3953067E-2,1.25E-1,1.4868936E-2,-3.5723235E-2,-9.91118E-3,-1.822396E-2,3.963014E-2,-2.4072023E-3,-3.3009913E-2,-1.2609294E-2,-3.650786E-2],"split_indices":[39,74,71,109,109,109,112,0,0,76,69,108,88,71,109,0,0,76,0,39,0,0,0,68,0,23,0,0,0,0,0,0,0,0,0],"split_type":[0,0,0,0,0,0,0,0,0,0,0,0,0,0,0,0,0,0,0,0,0,0,0,0,0,0,0,0,0,0,0,0,0,0,0],"sum_hessian":[2.3507622E2,8.210076E1,1.5297545E2,1.3199001E1,6.890176E1,9.871766E1,5.4257793E1,5.023237E0,8.175764E0,1.1148997E1,5.775276E1,4.402741E1,5.469025E1,2.4835854E1,2.942194E1,5.905463E0,5.2435336E0,5.0404537E1,7.3482246E0,3.3878304E1,1.0149108E1,5.0455356E0,4.9644714E1,1.2180619E1,1.2655235E1,2.430801E1,5.1139297E0,4.5000565E1,5.403971E0,2.803071E1,5.8475914E0,5.153953E0,7.0266657E0,5.116172E0,1.919184E1],"tree_param":{"num_deleted":"0","num_feature":"119","num_nodes":"35","size_leaf_vector":"1"}},{"base_weights":[-4.071839E-3,-2.4507087E-1,5.006614E-1,-3.3112895E-1,2.565638E-2,-9.656148E-1,7.840646E-1,-3.919682E-1,2.1014469E-2,-3.5267472E-2,-1.46278385E-2,1.1272103E0,-7.838145E-1,-5.980741E-1,-2.640507E-2,1.1653119E-2,3.573022E-2,-3.5636783E-2,-5.074205E-3,1.855569E-3,-2.241959E-2,1.1889026E-2,-1.8772239E-2],"categories":[],"categories_nodes":[],"categories_segments":[],"categories_sizes":[],"default_left":[0,0,0,0,0,0,0,0,0,0,0,0,0,0,0,0,0,0,0,0,0,0,0],"id":39,"left_children":[1,3,5,7,-1,9,11,13,-1,-1,-1,15,17,19,21,-1,-1,-1,-1,-1,-1,-1,-1],"loss_changes":[2.8040663E1,1.517052E1,3.204902E1,9.551319E0,0E0,2.4571228E-1,3.539629E1,1.0388878E1,0E0,0E0,0E0,1.6259003E0,2.591167E0,8.870043E0,1.3535415E1,0E0,0E0,0E0,0E0,0E0,0E0,0E0,0E0],"parents":[2147483647,0,0,1,1,2,2,3,3,5,5,6,6,7,7,11,11,12,12,13,13,14,14],"right_children":[2,4,6,8,-1,10,12,14,-1,-1,-1,16,18,20,22,-1,-1,-1,-1,-1,-1,-1,-1],"split_conditions":[1.5E1,3.2E0,0E0,5.37E1,2.565638E-2,9.271E-2,6.0725E2,6.87E0,2.1014469E-2,-3.5267472E-2,-1.46278385E-2,3.486718E-1,7.106E-1,3.78E0,1.9875E2,1.1653119E-2,3.573022E-2,-3.5636783E-2,-5.074205E-3,1.855569E-3,-2.241959E-2,1.1889026E-2,-1.8772239E-2],"split_indices":[39,109,102,61,0,6,71,108,0,0,0,21,6,108,71,0,0,0,0,0,0,0,0],"split_type":[0,0,0,0,0,0,0,0,0,0,0,0,0,0,0,0,0,0,0,0,0,0,0],"sum_hessian":[2.2771838E2,1.5478279E2,7.2935585E1,1.4461154E2,1.0171248E1,1.1171682E1,6.17639E1,1.3752785E2,7.083703E0,6.0959597E0,5.0757227E0,5.1071728E1,1.0692175E1,8.7159424E1,5.036842E1,5.0295687E0,4.604216E1,5.509068E0,5.1831064E0,1.6114311E1,7.104511E1,2.9736712E1,2.063171E1],"tree_param":{"num_deleted":"0","num_feature":"119","num_nodes":"23","size_leaf_vector":"1"}},{"base_weights":[4.1021325E-2,-4.5898366E-1,3.036784E-1,-6.546191E-1,4.8441383E-1,-9.629431E-2,9.9483365E-1,-1.055791E0,9.307602E-3,-1.1459167E-2,3.327286E-2,-4.261976E-1,5.861317E-1,6.9727446E-3,3.4042582E-2,-1.168758E0,-1.2121084E-2,8.906034E-1,-6.4765817E-1,2.99083E-2,-1.0910345E0,1.0863292E0,-2.1691011E-2,-3.7871614E-2,-1.6876338E-2,1.294982E-2,3.394997E-2,-2.973746E-3,-3.393068E-2,-2.3357717E-2,2.136766E-2,-4.0440515E-2,-1.5646329E-3,3.7113667E-2,1.8726086E-2],"categories":[],"categories_nodes":[],"categories_segments":[],"categories_sizes":[],"default_left":[0,0,0,0,0,0,0,0,0,0,0,0,0,0,0,0,0,0,0,0,0,0,0,0,0,0,0,0,0,0,0,0,0,0,0],"id":40,"left_children":[1,3,5,7,9,11,13,15,17,-1,-1,19,21,-1,-1,23,-1,25,27,29,31,33,-1,-1,-1,-1,-1,-1,-1,-1,-1,-1,-1,-1,-1],"loss_changes":[3.0084633E1,1.5045683E1,4.1769596E1,1.7707485E1,8.457023E0,2.2072979E1,5.3669815E0,2.1729088E0,1.6096388E1,0E0,0E0,2.0164314E1,2.214613E1,0E0,0E0,6.9625473E-1,0E0,4.28998E-1,3.9115877E0,2.317211E1,6.9570847E0,3.1284142E-1,0E0,0E0,0E0,0E0,0E0,0E0,0E0,0E0,0E0,0E0,0E0,0E0,0E0],"parents":[2147483647,0,0,1,1,2,2,3,3,4,4,5,5,6,6,7,7,8,8,11,11,12,12,15,15,17,17,18,18,19,19,20,20,21,21],"right_children":[2,4,6,8,10,12,14,16,18,-1,-1,20,22,-1,-1,24,-1,26,28,30,32,34,-1,-1,-1,-1,-1,-1,-1,-1,-1,-1,-1,-1,-1],"split_conditions":[6E0,1.1139E2,1E2,6.98E-1,3E0,1.9E1,6.9E-3,2.8233334E1,1.96E2,-1.1459167E-2,3.327286E-2,1.3E1,1.0796E2,6.9727446E-3,3.4042582E-2,3.2502844E0,-1.2121084E-2,7.9E0,5E0,-1.11E2,1.1604143E0,2E0,-2.1691011E-2,-3.7871614E-2,-1.6876338E-2,1.294982E-2,3.394997E-2,-2.973746E-3,-3.393068E-2,-2.3357717E-2,2.136766E-2,-4.0440515E-2,-1.5646329E-3,3.7113667E-2,1.8726086E-2],"split_indices":[39,69,37,6,39,39,6,61,71,0,0,39,69,0,0,111,0,108,39,90,111,22,0,0,0,0,0,0,0,0,0,0,0,0,0],"split_type":[0,0,0,0,0,0,0,0,0,0,0,0,0,0,0,0,0,0,0,0,0,0,0,0,0,0,0,0,0,0,0,0,0,0,0],"sum_hessian":[2.261032E2,7.735158E1,1.4875162E2,6.453409E1,1.2817491E1,9.495014E1,5.3801476E1,3.9769188E1,2.47649E1,5.5469737E0,7.270517E0,6.4485725E1,3.0464417E1,9.0725E0,4.4728977E1,3.2749496E1,7.0196886E0,1.0413856E1,1.4351044E1,3.900724E1,2.5478485E1,2.2282547E1,8.1818695E0,2.6818785E1,5.9307137E0,5.1706367E0,5.2432194E0,7.665992E0,6.6850524E0,1.768936E1,2.131788E1,1.999084E1,5.4876447E0,1.4740695E1,7.541851E0],"tree_param":{"num_deleted":"0","num_feature":"119","num_nodes":"35","size_leaf_vector":"1"}},{"base_weights":[1.5552337E-2,-4.9628395E-1,3.0848512E-1,-6.9482744E-1,4.71964E-1,6.380348E-1,-2.7636445E-1,-1.0762705E0,-4.7254723E-2,-1.1814885E-2,3.23181E-2,8.54802E-2,1.0542502E0,-7.447466E-1,3.0060914E-1,-1.1778666E0,-1.0884766E-2,-6.417807E-1,2.922569E-2,-2.0869163E-1,3.661986E-2,3.5818465E-2,6.6200536E-1,8.727132E-3,-9.784456E-1,3.3871785E-2,-5.278817E-1,-3.772251E-2,-1.8941738E-2,1.7302139E-3,-3.3015303E-2,-1.9769624E-2,3.0138914E-2,6.6467877E-3,3.0506423E-2,-3.6197633E-2,-1.6321516E-2,-3.343217E-2,8.418461E-3],"categories":[],"categories_nodes":[],"categories_segments":[],"categories_sizes":[],"default_left":[0,0,0,0,0,0,0,0,0,0,0,0,0,0,0,0,0,0,0,0,0,0,0,0,0,0,0,0,0,0,0,0,0,0,0,0,0,0,0],"id":41,"left_children":[1,3,5,7,9,11,13,15,17,-1,-1,19,21,23,25,27,-1,29,-1,31,-1,-1,33,-1,35,-1,37,-1,-1,-1,-1,-1,-1,-1,-1,-1,-1,-1,-1],"loss_changes":[3.457149E1,1.6637014E1,2.859517E1,1.7173775E1,8.607072E0,2.1474548E1,1.4931627E1,2.399086E0,1.7739206E1,0E0,0E0,1.4614914E1,1.5680847E0,7.816269E0,1.8181137E1,2.628212E-1,0E0,6.13181E0,0E0,1.9982346E1,0E0,0E0,2.2956681E0,0E0,1.3278065E0,0E0,6.959384E0,0E0,0E0,0E0,0E0,0E0,0E0,0E0,0E0,0E0,0E0,0E0,0E0],"parents":[2147483647,0,0,1,1,2,2,3,3,4,4,5,5,6,6,7,7,8,8,11,11,12,12,13,13,14,14,15,15,17,17,19,19,22,22,24,24,26,26],"right_children":[2,4,6,8,10,12,14,16,18,-1,-1,20,22,24,26,28,-1,30,-1,32,-1,-1,34,-1,36,-1,38,-1,-1,-1,-1,-1,-1,-1,-1,-1,-1,-1,-1],"split_conditions":[6E0,1.1139E2,2.965E2,6.98E-1,3E0,5.58613E-1,8.52E1,6.4E1,9.828E1,-1.1814885E-2,3.23181E-2,2E1,2.016129E0,6.6392083E0,6.0725E2,3.2502844E0,-1.0884766E-2,3.25128E1,2.922569E-2,2.9346E1,3.661986E-2,3.5818465E-2,2.086E1,8.727132E-3,6.8627644E-1,3.3871785E-2,9.590178E-1,-3.772251E-2,-1.8941738E-2,1.7302139E-3,-3.3015303E-2,-1.9769624E-2,3.0138914E-2,6.6467877E-3,3.0506423E-2,-3.6197633E-2,-1.6321516E-2,-3.343217E-2,8.418461E-3],"split_indices":[39,69,71,6,39,111,69,68,26,0,0,39,73,63,71,111,0,76,0,76,0,0,69,0,111,0,111,0,0,0,0,0,0,0,0,0,0,0,0],"split_type":[0,0,0,0,0,0,0,0,0,0,0,0,0,0,0,0,0,0,0,0,0,0,0,0,0,0,0,0,0,0,0,0,0,0,0,0,0,0,0],"sum_hessian":[2.2767224E2,8.2368515E1,1.4530373E2,6.8789734E1,1.3578778E1,9.295834E1,5.234538E1,4.2568165E1,2.6221573E1,5.734847E0,7.843931E0,4.0817986E1,5.2140358E1,2.8746428E1,2.3598953E1,3.6284565E1,6.283602E0,1.6988787E1,9.232786E0,3.3319656E1,7.498331E0,3.5998623E1,1.6141735E1,5.1461E0,2.3600327E1,1.1588017E1,1.2010936E1,2.981061E1,6.4739532E0,7.161937E0,9.826848E0,2.4860863E1,8.458793E0,8.415414E0,7.726321E0,1.3574445E1,1.0025882E1,6.7038007E0,5.307135E0],"tree_param":{"num_deleted":"0","num_feature":"119","num_nodes":"39","size_leaf_vector":"1"}},{"base_weights":[-4.2587847E-2,-5.1383E-1,2.229486E-1,-6.91015E-1,3.761442E-1,-1.57985E-1,9.468976E-1,-1.0534987E0,-1.2007515E-1,-1.5152763E-2,3.2117154E-2,-4.6317485E-1,4.557383E-1,3.5143665E-3,1.1013113E0,-1.1605608E0,-8.558763E-3,-6.8836325E-1,2.6173687E-2,-2.3590535E-2,-1.0838138E0,1.0163398E0,-6.7506087E-1,3.4876376E-2,1.4352061E-2,-1.564843E-2,-3.7118096E-2,-3.3249196E-2,4.6488377E-3,-2.1168478E-2,1.5877405E-2,-3.913725E-2,-1.4298102E-3,3.6257137E-2,1.5792908E-2,-3.233396E-2,-2.5940235E-3],"categories":[],"categories_nodes":[],"categories_segments":[],"categories_sizes":[],"default_left":[0,0,0,0,0,0,0,0,0,0,0,0,0,0,0,0,0,0,0,0,0,0,0,0,0,0,0,0,0,0,0,0,0,0,0,0,0],"id":42,"left_children":[1,3,5,7,9,11,13,15,17,-1,-1,19,21,-1,23,25,-1,27,-1,29,31,33,35,-1,-1,-1,-1,-1,-1,-1,-1,-1,-1,-1,-1,-1,-1],"loss_changes":[2.936042E1,1.3757862E1,4.1657597E1,1.4418732E1,9.997887E0,1.8944603E1,6.34787E0,2.9136162E0,1.748338E1,0E0,0E0,1.820467E1,2.2411846E1,0E0,6.634178E-1,6.858063E-1,0E0,7.3007965E0,0E0,1.604006E1,6.122528E0,1.0544586E0,2.589334E0,0E0,0E0,0E0,0E0,0E0,0E0,0E0,0E0,0E0,0E0,0E0,0E0,0E0,0E0],"parents":[2147483647,0,0,1,1,2,2,3,3,4,4,5,5,6,6,7,7,8,8,11,11,12,12,14,14,15,15,17,17,19,19,20,20,21,21,22,22],"right_children":[2,4,6,8,10,12,14,16,18,-1,-1,20,22,-1,24,26,-1,28,-1,30,32,34,36,-1,-1,-1,-1,-1,-1,-1,-1,-1,-1,-1,-1,-1,-1],"split_conditions":[6E0,1.1139E2,1E2,6.98E-1,3E0,1.9E1,6.9E-3,6.4E1,9.828E1,-1.5152763E-2,3.2117154E-2,1.3E1,1.0796E2,3.5143665E-3,8.174603E-1,9.5E1,-8.558763E-3,2.023125E0,2.6173687E-2,-1.11E2,1.3364E-1,2E0,7.6779205E-1,3.4876376E-2,1.4352061E-2,-1.564843E-2,-3.7118096E-2,-3.3249196E-2,4.6488377E-3,-2.1168478E-2,1.5877405E-2,-3.913725E-2,-1.4298102E-3,3.6257137E-2,1.5792908E-2,-3.233396E-2,-2.5940235E-3],"split_indices":[39,69,37,6,39,39,6,68,26,0,0,39,69,0,23,26,0,111,0,90,6,22,111,0,0,0,0,0,0,0,0,0,0,0,0,0,0],"split_type":[0,0,0,0,0,0,0,0,0,0,0,0,0,0,0,0,0,0,0,0,0,0,0,0,0,0,0,0,0,0,0,0,0,0,0,0,0],"sum_hessian":[2.3152995E2,8.307408E1,1.4845589E2,6.96543E1,1.3419779E1,9.7950165E1,5.0505714E1,4.1722298E1,2.7932001E1,6.0311527E0,7.388626E0,6.577348E1,3.2176678E1,8.43975E0,4.2065964E1,3.583221E1,5.890087E0,1.8118456E1,9.813545E0,3.9508595E1,2.6264893E1,2.16726E1,1.0504079E1,3.6971504E1,5.094462E0,5.234556E0,3.0597654E1,1.1859929E1,6.2585273E0,1.7583055E1,2.1925539E1,2.12519E1,5.012993E0,1.3838228E1,7.834372E0,5.3955975E0,5.1084814E0],"tree_param":{"num_deleted":"0","num_feature":"119","num_nodes":"37","size_leaf_vector":"1"}},{"base_weights":[-1.501683E-3,4.291595E-1,-1.9424716E-1,6.920919E-2,3.0165864E-2,-2.6837805E-1,7.5672E-1,7.162179E-1,-2.8487805E-1,-6.34227E-2,-6.405633E-1,2.9902168E-2,9.689857E-3,2.9402526E-2,4.2342963E-3,1.3528256E-1,-6.086312E-1,-3.4601066E-1,3.1116265E-1,-8.4693754E-1,1.757441E-1,2.6199514E-2,-1.2096155E-2,-2.6578333E-2,-5.395437E-3,9.993406E-3,-1.6605966E-2,2.6643286E-2,-2.9672538E-3,-1.2067062E-2,-3.2243438E-2,2.2992082E-2,-1.2878024E-2],"categories":[],"categories_nodes":[],"categories_segments":[],"categories_sizes":[],"default_left":[0,0,0,0,0,0,0,0,0,0,0,0,0,0,0,0,0,0,0,0,0,0,0,0,0,0,0,0,0,0,0,0,0],"id":43,"left_children":[1,3,5,7,-1,9,11,13,15,17,19,-1,-1,-1,-1,21,23,25,27,29,31,-1,-1,-1,-1,-1,-1,-1,-1,-1,-1,-1,-1],"loss_changes":[1.899798E1,1.4453944E1,1.1426253E1,1.0711885E1,0E0,1.1173644E1,6.087289E-1,2.1880093E0,4.279871E0,1.0476127E1,9.099642E0,0E0,0E0,0E0,0E0,6.2341146E0,1.7315073E0,8.245188E0,1.0271477E1,3.4689693E0,4.7070785E0,0E0,0E0,0E0,0E0,0E0,0E0,0E0,0E0,0E0,0E0,0E0,0E0],"parents":[2147483647,0,0,1,1,2,2,3,3,5,5,6,6,7,7,8,8,9,9,10,10,15,15,16,16,17,17,18,18,19,19,20,20],"right_children":[2,4,6,8,-1,10,12,14,16,18,20,-1,-1,-1,-1,22,24,26,28,30,32,-1,-1,-1,-1,-1,-1,-1,-1,-1,-1,-1,-1],"split_conditions":[3.5E-1,2.4E1,3.22E0,2E0,3.0165864E-2,7.028E1,8.2345795E1,3.088889E0,2.1266668E0,6.67E0,1E0,2.9902168E-2,9.689857E-3,2.9402526E-2,4.2342963E-3,1.5704249E1,1.9294138E1,2E0,3.27624E1,3.8E-1,6.8E1,2.6199514E-2,-1.2096155E-2,-2.6578333E-2,-5.395437E-3,9.993406E-3,-1.6605966E-2,2.6643286E-2,-2.9672538E-3,-1.2067062E-2,-3.2243438E-2,2.2992082E-2,-1.2878024E-2],"split_indices":[112,72,109,22,0,69,110,73,73,108,11,0,0,0,0,62,115,22,76,112,0,0,0,0,0,0,0,0,0,0,0,0,0],"split_type":[0,0,0,0,0,0,0,0,0,0,0,0,0,0,0,0,0,0,0,0,0,0,0,0,0,0,0,0,0,0,0,0,0],"sum_hessian":[2.2614584E2,6.9190735E1,1.5695511E2,4.37327E1,2.5458038E1,1.4670113E2,1.0253983E1,1.5025527E1,2.8707172E1,9.5909744E1,5.079138E1,5.199136E0,5.054847E0,9.456309E0,5.5692177E0,1.2739036E1,1.5968138E1,5.488544E1,4.1024303E1,4.059468E1,1.01967E1,5.0587206E0,7.6803145E0,8.583993E0,7.384144E0,1.2520809E1,4.236463E1,1.6418974E1,2.460533E1,1.5306558E1,2.5288122E1,5.0407166E0,5.155983E0],"tree_param":{"num_deleted":"0","num_feature":"119","num_nodes":"33","size_leaf_vector":"1"}},{"base_weights":[2.7106121E-2,5.1308364E-1,-2.2273779E-1,-2.4322088E-1,3.2788392E-2,-8.5402167E-1,2.4869509E-2,2.1885416E-2,-4.697126E-1,-1.0456445E0,1.150197E-2,-2.8282604E-1,7.374923E-1,-0E0,-2.819127E-2,-3.3917792E-2,-1.335841E-2,-5.0260514E-1,2.9742127E-2,-9.52366E-3,9.87266E-1,-2.1520691E-2,2.1793958E-2,7.847302E-3,-2.21295E-2,3.486397E-2,5.846324E-3],"categories":[],"categories_nodes":[],"categories_segments":[],"categories_sizes":[],"default_left":[0,0,0,0,0,0,0,0,0,0,0,0,0,0,0,0,0,0,0,0,0,0,0,0,0,0,0],"id":44,"left_children":[1,3,5,7,-1,9,11,-1,13,15,-1,17,19,21,-1,-1,-1,23,-1,-1,25,-1,-1,-1,-1,-1,-1],"loss_changes":[2.6781673E1,3.334173E1,2.2857714E1,7.9054294E0,0E0,1.0424282E1,2.356847E1,0E0,6.2579465E0,9.284706E-1,0E0,2.1678772E1,9.083723E0,8.935408E0,0E0,0E0,0E0,1.2004568E1,0E0,0E0,3.2196922E0,0E0,0E0,0E0,0E0,0E0,0E0],"parents":[2147483647,0,0,1,1,2,2,3,3,5,5,6,6,8,8,9,9,11,11,12,12,13,13,17,17,20,20],"right_children":[2,4,6,8,-1,10,12,-1,14,16,-1,18,20,22,-1,-1,-1,24,-1,-1,26,-1,-1,-1,-1,-1,-1],"split_conditions":[5.52E1,-1.512E3,6E0,4.53E1,3.2788392E-2,3.3957E1,1.197359E0,2.1885416E-2,1.2366667E1,1.1139E2,1.150197E-2,6.67E0,1.24E-1,3.7E-1,-2.819127E-2,-3.3917792E-2,-1.335841E-2,5.568125E0,2.9742127E-2,-9.52366E-3,1.1E0,-2.1520691E-2,2.1793958E-2,7.847302E-3,-2.21295E-2,3.486397E-2,5.846324E-3],"split_indices":[74,92,39,74,0,76,111,0,61,69,0,108,102,112,0,0,0,63,0,0,12,0,0,0,0,0,0],"split_type":[0,0,0,0,0,0,0,0,0,0,0,0,0,0,0,0,0,0,0,0,0,0,0,0,0,0,0],"sum_hessian":[2.1742221E2,7.342373E1,1.4399849E2,3.2167118E1,4.1256615E1,3.9647064E1,1.04351425E2,5.362667E0,2.6804451E1,3.4601997E1,5.045065E0,7.341621E1,3.0935219E1,1.4145895E1,1.2658556E1,2.9006401E1,5.5955977E0,6.3457825E1,9.958379E0,5.76773E0,2.5167488E1,7.1201305E0,7.025764E0,1.4787074E1,4.867075E1,1.9940777E1,5.2267118E0],"tree_param":{"num_deleted":"0","num_feature":"119","num_nodes":"27","size_leaf_vector":"1"}},{"base_weights":[8.928475E-3,-4.5759463E-1,2.72289E-1,7.29576E-1,-6.9956994E-1,-1.0276189E-1,9.5853657E-1,5.7025263E-3,3.1078722E-2,3.5331878E-1,-9.199313E-1,7.664306E-1,-3.3679274E-1,2.6086035E-1,3.36346E-2,-1.0094225E-2,2.6646761E-2,-1.0479984E0,-1.2651848E-3,2.9365243E-2,2.4166545E-3,-5.3849155E-1,5.4450446E-1,2.2347936E-2,-8.242335E-3,-3.347301E-2,-1.089581E-2,-2.1068916E-2,2.3532728E-2,-7.909737E-3,3.8969573E-2],"categories":[],"categories_nodes":[],"categories_segments":[],"categories_sizes":[],"default_left":[0,0,0,0,0,0,0,0,0,0,0,0,0,0,0,0,0,0,0,0,0,0,0,0,0,0,0,0,0,0,0],"id":45,"left_children":[1,3,5,7,9,11,13,-1,-1,15,17,19,21,23,-1,-1,-1,25,-1,-1,-1,27,29,-1,-1,-1,-1,-1,-1,-1,-1],"loss_changes":[2.724719E1,2.3728775E1,3.6768013E1,1.9292307E0,1.6146557E1,1.9271612E1,5.141506E0,0E0,0E0,5.168657E0,6.1313744E0,2.7049227E0,1.3671621E1,3.3611612E0,0E0,0E0,0E0,